<?xml version="1.0"?>
<opencv_storage>
<opencv_ml_svm>
  <format>3</format>
  <svmType>C_SVC</svmType>
  <kernel>
    <type>LINEAR</type></kernel>
  <C>1.</C>
  <term_criteria><iterations>100</iterations></term_criteria>
  <var_count>1296</var_count>
  <class_count>2</class_count>
  <class_labels type_id="opencv-matrix">
    <rows>2</rows>
    <cols>1</cols>
    <dt>i</dt>
    <data>
      0 1</data></class_labels>
  <sv_total>1</sv_total>
  <support_vectors>
    <_>
      -1.16362102e-01 -1.34858608e-01 -1.78318650e-01 -5.33720814e-02
      -6.49558231e-02 1.12857632e-01 4.22389694e-02 4.14982066e-02
      -4.49949354e-02 -6.75165579e-02 -5.97471334e-02 -7.60405511e-02
      1.71922408e-02 7.84156173e-02 1.39926642e-01 9.19288918e-02
      3.87289934e-02 8.50656256e-03 5.86005393e-03 -9.17371288e-02
      -1.42433718e-01 5.32672461e-03 2.75766067e-02 9.12867337e-02
      1.98371500e-01 1.52716756e-01 1.28202930e-01 2.36363318e-02
      -7.90863037e-02 -9.04812068e-02 -4.36769389e-02 9.53632668e-02
      7.19897225e-02 1.44058987e-01 7.59322867e-02 1.10152096e-01
      -7.76471049e-02 -6.96276948e-02 6.34409720e-03 5.18461615e-02
      7.52337873e-02 7.69423023e-02 1.45872151e-02 -9.32198390e-02
      -2.92445533e-02 -8.05343166e-02 -1.17508695e-01 1.54859312e-02
      6.56496957e-02 -8.03659335e-02 1.11443372e-02 -2.44236346e-02
      -4.32582945e-02 -1.00302519e-02 -1.52072106e-02 -1.16113663e-01
      -5.81746735e-02 -3.53729888e-03 6.09639920e-02 2.87834555e-02
      9.29226503e-02 3.11772320e-02 5.17611913e-02 -3.61986421e-02
      -6.75073043e-02 3.13433371e-02 6.82925582e-02 2.40766387e-02
      -6.92737252e-02 -1.45093342e-02 -2.33695190e-02 5.80427051e-02
      -7.81902224e-02 -1.20756693e-01 -5.35755567e-02 6.64586276e-02
      1.07586503e-01 -3.99547629e-02 4.89289388e-02 5.72746992e-03
      -8.47448483e-02 -7.44432732e-02 -3.95897683e-03 9.22403112e-03
      1.42202973e-01 8.81811008e-02 1.93871055e-02 -3.88718396e-02
      -1.79151386e-01 -1.50878847e-01 -5.71524426e-02 -4.37264219e-02
      -1.74410865e-02 2.14298684e-02 -4.09791395e-02 -1.20743588e-01
      -7.73029104e-02 1.00904129e-01 -1.15108874e-03 -5.51231317e-02
      3.99685092e-02 2.72523351e-02 5.32504208e-02 3.36670619e-03
      -6.22823536e-02 -1.92502309e-02 4.54664826e-02 -2.04613414e-02
      -1.46759804e-02 8.45832750e-03 5.62345125e-02 6.51348988e-03
      8.97776708e-02 6.37753159e-02 -3.88496276e-03 -1.00527599e-01
      -1.08530432e-01 -3.70476358e-02 3.05991285e-02 4.94038127e-02
      -2.50602011e-02 1.55605227e-02 5.85991181e-02 -1.17499426e-01
      -1.06189556e-01 -1.49030685e-01 -3.65498214e-04 4.61341180e-02
      -3.70043144e-03 -2.41606869e-02 8.95807296e-02 -8.98589194e-02
      -1.92587730e-02 -2.20064763e-02 -7.74493217e-02 2.48115901e-02
      2.69102957e-02 6.85921405e-04 -7.44803771e-02 1.88450068e-02
      -6.11739941e-02 -1.07758433e-01 -1.12455012e-02 -9.79506522e-02
      8.73914454e-03 -1.84540022e-02 1.07729255e-04 3.04359775e-02
      -6.42754063e-02 2.40710061e-02 -1.93317495e-02 -1.10737838e-01
      -6.11408465e-02 -4.72659878e-02 -2.07055602e-02 4.43005636e-02
      8.05781186e-02 -6.82561775e-04 -1.69697346e-03 -1.25636891e-01
      -2.27419302e-01 -1.25347272e-01 -1.10403299e-01 -2.23831111e-03
      5.71891479e-02 -6.83673378e-03 -1.53337583e-01 2.23677038e-04
      -1.39765888e-02 -1.54500782e-01 -8.43569562e-02 -2.47259140e-02
      2.15613982e-03 3.96736339e-02 6.52532205e-02 8.62063244e-02
      1.64257754e-02 -4.70824838e-02 -1.16802976e-01 -1.55485375e-02
      2.44850200e-02 1.72611158e-02 -5.60662337e-02 5.14673628e-02
      3.02785859e-02 1.02169193e-01 1.15467766e-02 -6.92528188e-02
      -6.79546921e-03 7.56691620e-02 8.38198513e-02 -5.16798496e-02
      -1.10920016e-02 2.05922942e-03 -1.82090548e-03 -5.57737201e-02
      -1.17373660e-01 2.59133913e-02 7.30193406e-02 2.33974513e-02
      -1.48854097e-02 8.14354122e-02 1.11648023e-01 -3.07287946e-02
      5.36509277e-03 -1.30087122e-01 1.88658927e-02 4.13396172e-02
      2.17194837e-02 5.93967363e-03 1.20134532e-01 9.32882577e-02
      -9.49176624e-02 -7.44926482e-02 -1.48058280e-01 4.31949785e-03
      4.23021801e-02 -5.45014329e-02 -7.50413239e-02 1.47061637e-02
      -1.56387482e-02 9.70715471e-03 1.34964824e-01 7.50502348e-02
      1.58157274e-01 2.86086239e-02 -7.84666613e-02 -1.58354416e-01
      -1.09067976e-01 -5.79621829e-02 -9.67097729e-02 -2.13024169e-02
      -4.15957980e-02 1.56571329e-01 4.20811959e-02 -3.18196677e-02
      -3.49757336e-02 2.77035800e-03 -3.56257260e-02 7.86475986e-02
      4.69381250e-02 -4.35663760e-03 6.32215366e-02 5.43793291e-02
      1.65277254e-02 -4.64182347e-02 -1.94840040e-02 -7.07475352e-04
      -1.56876966e-02 -7.13565722e-02 -8.55459496e-02 6.59255013e-02
      1.95086505e-02 -1.43366665e-01 -1.04310893e-01 -6.05385639e-02
      -3.65642160e-02 5.57727255e-02 5.02381064e-02 6.89305812e-02
      1.25346810e-01 3.00385430e-03 5.68532478e-03 -2.06202753e-02
      -2.29784673e-05 -3.66346613e-02 -5.18734381e-02 -3.32074054e-02
      7.72324428e-02 4.94167656e-02 3.97741906e-02 1.14796543e-02
      -2.29758937e-02 -3.87124754e-02 -4.67180163e-02 -7.22198095e-03
      2.92113610e-02 -4.13293391e-02 5.40663451e-02 -5.23083657e-02
      -2.42493954e-02 4.58117351e-02 5.83025552e-02 -4.34117019e-02
      -7.57880732e-02 -1.62679777e-02 4.79044095e-02 4.37046103e-02
      2.23426372e-02 -2.84302738e-02 -6.04629666e-02 -7.13567308e-04
      -6.16003014e-02 -5.62380180e-02 2.48258170e-02 -5.93142677e-03
      3.79732065e-02 8.67394060e-02 -4.39573303e-02 -7.31782019e-02
      -2.00052764e-02 -1.98015012e-02 -8.08951259e-02 7.43451640e-02
      1.84355732e-02 1.34682059e-01 -6.38059825e-02 -4.28549014e-02
      4.32701260e-02 -4.15208861e-02 -2.00047180e-01 -6.04303479e-02
      5.85672818e-02 1.34473667e-02 9.69620571e-02 4.58260700e-02
      -8.50950647e-03 -9.99448821e-03 2.73949225e-02 -5.74626215e-02
      -9.84634906e-02 1.57792363e-02 2.29588407e-03 1.25893667e-01
      4.02239291e-03 3.71126533e-02 2.84560174e-02 -3.76100317e-02
      -2.14039646e-02 4.66459319e-02 4.61315252e-02 8.58531147e-02
      3.75674590e-02 1.17359478e-02 7.20747411e-02 -2.20279116e-02
      -1.05906621e-01 4.26442549e-02 -1.69295128e-02 4.79523465e-02
      1.12714730e-01 2.39077602e-02 -8.43980238e-02 -8.09313282e-02
      4.05650167e-03 -5.66472523e-02 -7.06213340e-03 5.60424030e-02
      -8.24350119e-03 -5.70367984e-02 -5.65594770e-02 -8.07788223e-02
      5.61765162e-03 -1.17769511e-02 -2.87356433e-02 1.01659678e-01
      -5.65497624e-03 -5.11928014e-02 -1.55204847e-01 -1.48525849e-01
      -6.40322492e-02 3.71539667e-02 9.14493501e-02 -2.99373381e-02
      -2.34645829e-02 -6.23583011e-02 -1.04148619e-01 -7.90122747e-02
      -3.97731997e-02 -8.99094790e-02 7.78593938e-04 7.51788244e-02
      5.47338575e-02 4.71281335e-02 -3.49577218e-02 -9.94589478e-02
      -1.21776514e-01 -7.71653354e-02 -3.57080735e-02 7.04498664e-02
      9.20827389e-02 -2.63315812e-02 -5.22186346e-02 -4.33462448e-02
      1.56515390e-02 -3.75299081e-02 -5.54647632e-02 4.47180457e-02
      1.67604350e-02 9.21933129e-02 7.01611266e-02 -1.28828362e-02
      3.27018313e-02 -5.15622906e-02 -1.92819331e-02 1.90386865e-02
      -1.07111342e-01 6.48166388e-02 7.55786672e-02 3.38832475e-02
      4.43677604e-02 -6.62245527e-02 -1.47267073e-01 -4.23534065e-02
      -1.75925866e-02 2.76158378e-02 1.54305935e-01 1.63305610e-01
      8.23464245e-02 -3.01393028e-02 -9.40505415e-02 -1.86026365e-01
      -1.74908429e-01 1.98951364e-02 3.94416088e-03 1.00852385e-01
      1.16476882e-02 1.51954405e-02 -1.01921812e-01 -3.24945599e-02
      -2.70444155e-02 9.85891744e-02 8.26049671e-02 3.90639901e-02
      1.21146604e-01 1.37976333e-01 5.97543223e-03 -3.99075523e-02
      -1.21129341e-01 -1.53949127e-01 -6.88091591e-02 4.16447707e-02
      5.95791750e-02 6.40856922e-02 3.67791615e-02 -1.44785205e-02
      -8.56907964e-02 -7.79332146e-02 3.36424112e-02 1.87085904e-02
      5.60183674e-02 1.05165079e-01 7.79961050e-02 1.17392540e-02
      -1.93523780e-01 -9.11334455e-02 -1.13841817e-01 -4.93655875e-02
      2.70217285e-02 8.37586597e-02 1.04792379e-01 8.25802982e-02
      7.83616379e-02 -3.32087092e-03 2.12773476e-02 -7.71126077e-02
      1.19114093e-01 9.52253342e-02 1.20777331e-01 1.19780079e-01
      8.24572966e-02 3.64738852e-02 -2.07353577e-01 -6.57092929e-02
      -1.03056557e-01 -6.06621355e-02 3.00569721e-02 1.10938177e-01
      7.24569634e-02 -3.31153232e-03 -4.92520332e-02 -7.66617758e-03
      3.55927981e-02 -4.40757014e-02 -8.00562426e-02 5.99675300e-03
      8.21122304e-02 6.30867109e-02 -2.02003084e-02 1.88172944e-02
      -1.99932884e-03 -3.40313390e-02 -4.98218685e-02 -8.26316327e-02
      -7.23618865e-02 4.84941676e-02 2.04736367e-02 -5.83363064e-02
      1.83903240e-02 -6.82147080e-03 4.28159498e-02 -2.45087985e-02
      -4.12564464e-02 -3.11269499e-02 7.12607354e-02 -2.33636256e-02
      -7.87029490e-02 6.59268498e-02 5.76129556e-02 9.01591256e-02
      -5.87390289e-02 -1.94071326e-02 -1.21112667e-01 1.57765287e-03
      -6.22545555e-02 -3.08750272e-02 1.17500201e-02 -6.14679083e-02
      -8.54734704e-02 -2.71541774e-02 -4.62955004e-03 -9.80754942e-03
      8.70336872e-03 -8.09323341e-02 -7.79160559e-02 3.81516889e-02
      -4.33606580e-02 5.23999780e-02 -7.51642436e-02 -8.85428861e-03
      9.38677490e-02 1.75057407e-02 -4.17782627e-02 -1.40150422e-02
      6.45042881e-02 -5.12013882e-02 -5.94418943e-02 -9.12997723e-02
      -3.23606189e-03 -2.25613490e-02 -1.80943087e-02 5.11221625e-02
      -2.78866719e-02 2.45692041e-02 -1.13998307e-02 4.31861505e-02
      -7.17503652e-02 5.06656012e-03 4.27283579e-03 -1.83179546e-02
      4.05416563e-02 2.66910531e-02 -1.10003091e-02 -1.20167159e-01
      7.34293601e-03 -1.12526350e-01 2.44018901e-03 4.49093357e-02
      8.12130496e-02 5.84983826e-02 4.56110686e-02 7.76726473e-03
      -1.54777810e-01 -7.81752616e-02 -9.56497565e-02 3.35636409e-03
      1.77283157e-02 3.34694572e-02 1.47013143e-02 -3.93612385e-02
      -3.87231372e-02 -7.96198025e-02 1.44451067e-01 -9.74972323e-02
      -3.52850668e-02 -1.33593380e-02 6.07734472e-02 -8.35791528e-02
      -4.29703034e-02 1.71270389e-02 -9.88859683e-02 -2.50084959e-02
      -7.92208165e-02 7.51455575e-02 1.12358127e-02 -1.01962173e-02
      6.98245913e-02 6.69208989e-02 6.25099689e-02 -4.19353805e-02
      -9.23704430e-02 -6.62945732e-02 -5.79870529e-02 -5.23632281e-02
      -1.08125843e-02 8.42294544e-02 4.85478342e-02 -4.72488301e-03
      -1.36976495e-01 -9.90688652e-02 -4.10730392e-02 2.61965347e-03
      3.98627892e-02 5.02006486e-02 2.89256014e-02 -2.55634058e-02
      3.26194204e-02 -6.27116561e-02 -5.06195389e-02 -2.24336050e-02
      4.70810384e-02 -2.59311441e-02 8.62519816e-03 7.28837326e-02
      -3.18466201e-02 -1.66868214e-02 -3.66737917e-02 -5.02898507e-02
      -3.35172787e-02 3.86352763e-02 2.35632304e-02 6.38567582e-02
      9.84461159e-02 4.39988412e-02 1.45525355e-02 -6.65324479e-02
      -8.90384018e-02 -7.52721429e-02 2.87131290e-03 -1.91099178e-02
      5.43540791e-02 5.77019118e-02 2.03337930e-02 -2.01175213e-02
      -9.93743390e-02 -1.97774515e-01 -1.17555931e-01 1.23360874e-02
      3.31478976e-02 9.11448076e-02 8.89720991e-02 -2.96928100e-02
      -1.94269624e-02 3.41117084e-02 -1.11554161e-01 -7.56079927e-02
      4.80230749e-02 6.81716651e-02 1.01775847e-01 6.43535703e-02
      1.35088281e-03 -5.34809716e-02 -1.31124869e-01 -2.46058702e-01
      -8.74031410e-02 9.12716836e-02 1.19312212e-01 1.28784433e-01
      8.37392509e-02 5.80194853e-02 1.21174768e-01 -2.04063766e-02
      -1.24372296e-01 -6.69678003e-02 3.91198285e-02 3.80840153e-03
      7.97399804e-02 -1.29057895e-02 -2.18941793e-02 4.27703485e-02
      -3.51202562e-02 -3.58098857e-02 -8.05115700e-02 1.31486524e-02
      -6.53323010e-02 4.57050838e-03 1.45886779e-01 3.60681079e-02
      7.91335180e-02 -5.91716506e-02 -1.54794365e-01 -1.03909239e-01
      -1.60761960e-02 -1.88018903e-02 1.31073013e-01 9.50969476e-03
      -7.85325933e-03 2.32402738e-02 -6.38173297e-02 -4.47179675e-02
      -1.84801325e-01 1.35208398e-01 -1.41434520e-02 -3.11772749e-02
      5.37774824e-02 4.22403868e-03 5.79205565e-02 2.87299836e-03
      -2.44178101e-02 -7.77416080e-02 2.73115356e-02 -3.96576039e-02
      -1.89467855e-02 9.39400401e-03 8.96781590e-03 8.71530771e-02
      -8.31293166e-02 -2.56997962e-02 -8.86453539e-02 7.67506519e-03
      -4.44560200e-02 -3.34892012e-02 1.75713643e-01 1.22164667e-01
      9.08692703e-02 -5.39062694e-02 -1.07343912e-01 -1.98420644e-01
      6.97965249e-02 2.41785683e-02 4.09108959e-02 1.59983888e-01
      1.19278662e-01 1.15439102e-01 -1.94097295e-01 -1.37251511e-01
      -1.13297559e-01 2.92533282e-02 -4.61178496e-02 2.20695455e-02
      4.17832024e-02 -3.04443967e-02 -2.75462102e-02 1.34454574e-02
      -5.77012934e-02 -3.69551666e-02 3.94130051e-02 -2.85388976e-02
      -1.87783986e-02 6.26640692e-02 1.72708482e-02 1.37292175e-02
      1.87835135e-02 8.97450279e-03 -1.35735702e-02 9.37320106e-03
      -5.47207184e-02 3.25521864e-02 6.61963150e-02 3.95006649e-02
      -1.28786499e-02 -1.05907671e-01 -6.12265803e-02 3.97886969e-02
      5.00364117e-02 -5.92729636e-02 -3.41167673e-02 6.05301419e-03
      1.17328204e-02 -4.63289656e-02 -6.86930045e-02 -4.34723534e-02
      7.10978433e-02 2.17786431e-02 -9.08705443e-02 -9.05948654e-02
      1.10118195e-01 9.54553206e-03 5.10311034e-03 -2.42736153e-02
      4.52109538e-02 -4.42230254e-02 -7.03215180e-03 -8.26253593e-02
      6.72147647e-02 7.81849027e-02 1.25796404e-02 -3.72644663e-02
      -1.27738997e-01 -3.74269038e-02 -1.56498164e-01 -6.22275583e-02
      -4.93019708e-02 -1.98621079e-02 4.54254672e-02 -6.58607259e-02
      -8.54731873e-02 -1.09532505e-01 4.64074574e-02 2.02085227e-02
      5.65023832e-02 -5.69409318e-02 2.70234589e-02 3.06447428e-02
      -5.48845436e-03 -1.22541212e-01 -1.74050242e-01 -3.69953737e-02
      -7.97703266e-02 6.53749406e-02 3.05850321e-04 -3.67128500e-03
      2.04480123e-02 5.50753549e-02 -7.63230026e-02 -1.13216393e-01
      -7.51584992e-02 -1.23237267e-01 -1.31234780e-01 -6.29168600e-02
      -9.49402712e-03 7.51634985e-02 7.39837214e-02 8.73732269e-02
      -8.76328647e-02 -7.44220093e-02 -3.28162834e-02 3.07060429e-03
      8.00198968e-03 7.11860508e-02 6.45295531e-02 3.35330330e-02
      -5.75249121e-02 -1.15642890e-01 -5.00680394e-02 -2.49276347e-02
      -5.77795729e-02 -6.36131763e-02 -8.01832322e-03 7.36762881e-02
      -1.29883736e-02 -7.60154575e-02 -1.48175925e-01 -2.40741670e-02
      -7.62664527e-02 9.16460380e-02 7.96743631e-02 1.24192953e-01
      9.61164981e-02 -5.10074757e-02 -1.84299767e-01 -1.91452891e-01
      -4.80831787e-02 -6.04013633e-03 1.12799341e-02 9.72377285e-02
      1.36193842e-01 5.62368706e-02 -8.70471727e-03 -1.24849387e-01
      -1.93155766e-01 -2.16669410e-01 4.24260311e-02 4.07419577e-02
      8.12254697e-02 1.14829496e-01 1.22192830e-01 -5.93731739e-02
      -1.18157901e-01 -1.48056403e-01 4.24241414e-03 -3.08000557e-02
      1.27458170e-01 8.90250877e-02 1.24808349e-01 8.58172476e-02
      1.33737363e-03 1.61252599e-02 -2.76114363e-02 -7.97936693e-02
      -7.03386143e-02 2.51421165e-02 -9.30568087e-04 9.93940607e-02
      5.64361960e-02 3.62676755e-02 7.87578225e-02 -1.10652454e-01
      -4.65667136e-02 -1.32387221e-01 8.79482646e-03 1.51993573e-01
      1.29467115e-01 -3.00039500e-02 2.72530876e-02 2.53389664e-02
      -7.83123299e-02 -2.88725831e-02 -1.14934146e-01 6.55663237e-02
      1.52018026e-01 -1.40341604e-02 3.66830789e-02 7.01756552e-02
      1.16595186e-01 -1.85328927e-02 4.27416787e-02 -1.28180131e-01
      -1.63357168e-01 -6.27994239e-02 8.28835517e-02 -2.61945021e-03
      -4.42760736e-02 8.70969296e-02 7.50380307e-02 1.30331069e-01
      -6.55465871e-02 -1.29870966e-01 -1.29906684e-01 -7.29696685e-03
      4.43893783e-02 3.03095691e-02 -3.96233081e-04 -6.91334084e-02
      -8.54889080e-02 -1.02066711e-01 3.21186259e-02 8.73796865e-02
      2.17241161e-02 6.78922758e-02 6.97855875e-02 -5.59215732e-02
      -9.92400050e-02 -1.43009916e-01 -1.24892235e-01 5.58575094e-02
      8.37699249e-02 8.12737048e-02 1.04750313e-01 1.17863342e-03
      -7.19751045e-02 -1.21293299e-01 6.92935362e-02 -5.02510667e-02
      -1.64499937e-03 -2.93865763e-02 3.22092026e-02 1.45350114e-01
      3.46335322e-02 -4.88331802e-02 -1.17930166e-01 -4.27735485e-02
      -9.26673785e-02 -5.56423962e-02 7.67792435e-03 1.04094602e-01
      -4.30665947e-02 -1.82577092e-02 -6.32243007e-02 -9.52309184e-03
      5.18695777e-03 2.52348334e-02 -2.15931889e-02 -1.12962639e-02
      4.09774333e-02 -1.47379306e-03 -1.37607038e-01 -1.18963227e-01
      -5.50125875e-02 7.58656412e-02 5.99066392e-02 1.11629050e-02
      -1.70370340e-02 2.33703796e-02 4.77189291e-03 3.46453451e-02
      2.12528054e-02 1.81121475e-04 3.61394696e-02 -1.40763149e-01
      -2.17065588e-02 -1.27739504e-01 -3.17246206e-02 3.09532601e-02
      -2.88486630e-02 -8.21260139e-02 -2.24045161e-02 6.40691370e-02
      -3.94363739e-02 -3.11710406e-02 -4.94323708e-02 2.34904494e-02
      2.77504995e-02 -6.17712773e-02 -1.05779134e-01 -8.80731717e-02
      5.95310591e-02 3.13675068e-02 6.76804036e-02 -8.95893797e-02
      -3.42639768e-03 1.18536018e-02 -4.74148914e-02 -6.78350702e-02
      -7.58260861e-02 -1.87678784e-02 1.01410784e-03 5.17635606e-02
      -1.09564997e-01 3.68458126e-03 3.79904024e-02 -1.18027134e-02
      -4.39696983e-02 -6.46610335e-02 3.78029011e-02 7.22783676e-04
      -2.74791885e-02 -4.43117544e-02 6.42207125e-03 -1.56936795e-02
      -1.04797445e-01 -4.31044474e-02 -1.15497276e-01 -2.05070172e-02
      -9.29168388e-02 1.64266396e-02 -3.85657512e-02 -6.57137185e-02
      -1.99099630e-02 -6.08218163e-02 8.13343748e-03 -2.06766799e-02
      -6.79220445e-03 -2.62654964e-02 -4.88795228e-02 4.74227630e-02
      2.07364857e-02 -8.33030343e-02 -1.38656750e-01 -1.47628829e-01
      -2.99858805e-02 8.17263946e-02 1.80525158e-03 3.65339778e-02
      6.47003204e-02 5.76857962e-02 -3.92699204e-02 -8.17732289e-02
      -3.37828062e-02 -1.67109221e-02 6.04652986e-02 7.27867335e-02
      -1.35676771e-01 -1.05650257e-02 4.44219587e-03 5.36555750e-03
      -6.48519918e-02 -6.20323904e-02 1.77119002e-02 1.05281271e-01
      8.44039842e-02 1.55291671e-03 1.31827667e-02 -2.49306057e-02
      -7.25492314e-02 -6.12979606e-02 -6.38664737e-02 -3.07076965e-02
      -3.78950238e-02 3.05593107e-02 1.27525017e-01 2.56825145e-02
      -3.37199271e-02 -1.12111501e-01 -8.79924893e-02 -1.10232122e-01
      -5.09425141e-02 -6.08331300e-02 -6.33821338e-02 1.61832824e-01
      6.51060715e-02 -4.32352349e-02 -5.70243672e-02 -4.21236604e-02
      -7.08736107e-02 -3.37424800e-02 1.62282828e-02 1.49931148e-01
      1.22482225e-01 -3.76776955e-03 -2.04350650e-02 -6.04256317e-02
      -1.05574124e-01 -4.81640957e-02 -8.95306766e-02 4.51637693e-02
      -3.63865457e-02 7.46326074e-02 -6.12705015e-02 -2.66934279e-02
      6.60953522e-02 6.99207559e-02 1.57028407e-01 1.12952091e-01
      6.92422017e-02 -8.85498226e-02 -2.18038872e-01 -1.49120554e-01
      4.00377549e-02 -4.05075774e-03 -1.01399492e-03 7.38124028e-02
      8.09616819e-02 -7.23009813e-04 8.93190652e-02 -3.54332067e-02
      -1.44093946e-01 -1.79742929e-02 8.43604058e-02 1.15255723e-02
      1.85836524e-01 1.09512880e-01 1.32241948e-02 -3.40097174e-02
      -9.33263451e-02 -1.09373406e-01 6.86912909e-02 -4.82594930e-02
      5.60261533e-02 7.93752894e-02 8.72758552e-02 1.71776842e-02
      8.74168798e-02 -8.68790001e-02 -1.30718440e-01 -2.36521251e-02
      -4.01738519e-03 -7.39545226e-02 -6.99471757e-02 -7.02859387e-02
      -1.31033314e-02 1.53204827e-02 2.10640207e-02 -2.82797702e-02
      -3.65118980e-02 1.70830749e-02 -6.28399923e-02 -3.13132778e-02
      -9.64312628e-02 -2.93830484e-02 -1.91853568e-02 -1.13382399e-01
      -3.93468477e-02 4.96034278e-04 2.48535611e-02 -2.15406362e-02
      7.15605691e-02 1.12907365e-02 5.99028990e-02 3.38236466e-02
      -1.02612436e-01 -8.31585452e-02 -1.16394207e-01 4.10473533e-02
      8.90303496e-03 5.89122251e-02 2.62109768e-02 1.08843423e-01
      1.02455122e-03 -1.89752966e-01 -9.14418399e-02 -5.76203410e-03
      -7.39580914e-02 -4.50578034e-02 -8.19039941e-02 -1.83539629e-01
      -7.25010708e-02 5.64774200e-02 6.49947599e-02 -4.75052968e-02
      -9.98163745e-02 -5.56972362e-02 2.00020168e-02 -5.74255362e-02
      -4.36220914e-02 -3.84925865e-02 1.54537689e-02 4.04604115e-02
      -4.27373312e-02 -7.77393728e-02 1.18490739e-03 8.69771987e-02
      9.13417935e-02 -2.13712659e-02 7.91374817e-02 4.38823178e-02
      1.52308531e-02 1.29231121e-02 -1.28890440e-01 4.74750530e-03
      3.89449634e-02 -5.99561865e-03 4.29169163e-02 4.23449390e-02
      4.32410203e-02 7.10575748e-03 2.41740923e-02 -1.36645511e-01
      -3.41588724e-03 -5.30744009e-02 -9.81115848e-02 1.95864812e-02
      -2.56508403e-02 -4.47021052e-02 -2.88122203e-02 -8.27080011e-02
      -4.93653826e-02 -6.45094737e-03 -9.17545259e-02 -1.06679603e-01
      -6.99934885e-02 -8.74359102e-04 9.83742997e-03 3.49912494e-02
      1.96588002e-02 -7.57495128e-03 -9.17308107e-02 -8.64060819e-02
      -8.38808492e-02 3.52084525e-02 2.37026848e-02 4.34762090e-02
      -1.92913823e-02 4.35408577e-02 -8.27483740e-03 -5.58423065e-02
      -2.19176710e-01 -1.33274719e-01 1.73128881e-02 4.72033136e-02
      1.10994540e-01 1.29751161e-01 1.25559226e-01 6.23532832e-02
      -5.53169735e-02 -1.82938483e-02 -2.24422365e-02 3.88120674e-03
      1.60969365e-02 1.11780323e-01 4.94354963e-02 -2.67940592e-02
      -4.91669634e-03 -1.84940808e-02 -1.09786503e-01 -8.18745196e-02
      4.60353447e-03 -1.92028675e-02 7.89802223e-02 2.71585677e-02
      -1.00385705e-02 -2.26189680e-02 -1.02385908e-01 -4.38160188e-02
      2.53586359e-02 1.03074275e-02 -3.19249965e-02 8.49953815e-02
      1.51853366e-02 3.72198075e-02 3.81377004e-02 -1.48963645e-01
      -1.20086223e-01 -3.17994989e-02 -1.53035420e-04 -3.16210650e-02
      5.53236566e-02 -5.70939817e-02 8.87987483e-03 -7.94296637e-02
      3.29528302e-02 -4.51817811e-02 -8.58015269e-02 3.10916193e-02
      1.48205891e-01 9.92050394e-02 1.94755439e-02 -2.04010494e-02
      -1.29317073e-02 -2.20679063e-02 -3.69510092e-02 -9.21636261e-03
      3.24073359e-02 -8.56320094e-03 1.14288172e-02 -3.66174802e-02
      -1.19811155e-01 -8.98383632e-02 1.21491458e-02 -6.29336983e-02
      -4.87324670e-02 1.18216183e-02 1.08435392e-01 9.88466479e-03
      -1.48892254e-02 -5.58283366e-02 2.07809662e-03 -4.07985561e-02
      5.91028854e-03 -8.38702321e-02 -4.12621759e-02 -3.82400975e-02
      -9.70438309e-03 -4.29226272e-02 -5.93983494e-02 -2.38962919e-02</_></support_vectors>
  <uncompressed_sv_total>113</uncompressed_sv_total>
  <uncompressed_support_vectors>
    <_>
      1.66603208e-01 6.59033656e-02 1.97207436e-01 0. 2.31128365e-01 0.
      0. 0. 1.66603208e-01 1.85786530e-01 1.12783387e-01 3.37489605e-01
      0. 3.96771193e-01 0. 0. 0. 1.85786530e-01 2.04700008e-01
      1.16907552e-01 3.49830657e-01 0. 2.61942774e-01 0. 0. 0.
      2.04700008e-01 2.07819536e-01 1.00305438e-01 3.00150990e-01 0.
      1.24121025e-01 0. 0. 0. 2.07819536e-01 1.73420519e-01
      2.35693734e-02 7.05285147e-02 0. 3.04514766e-01 0. 6.30067214e-02
      2.10557394e-02 1.73420519e-01 1.19355552e-01 5.83065934e-02
      1.74475476e-01 0. 4.15536970e-01 0. 4.20044772e-02 1.40371583e-02
      1.19355552e-01 1.47844702e-01 7.31470361e-02 2.18883812e-01 0.
      4.45354521e-01 0. 0. 0. 1.47844702e-01 3.70828994e-02
      9.94571298e-02 2.97613382e-01 0. 4.45354521e-01 0. 2.83107273e-02
      9.46097169e-03 3.70828994e-02 2.39386231e-01 1.38585702e-01
      4.14699703e-01 0. 1.10600077e-01 0. 2.93831211e-02 9.81934741e-03
      2.39386231e-01 2.18529075e-01 9.46922079e-02 2.83354133e-01 0.
      2.72228867e-01 0. 4.40746807e-02 1.47290211e-02 2.18529075e-01
      1.50823757e-01 1.23560101e-01 3.69737536e-01 0. 2.90171832e-01 0.
      5.33413179e-02 1.78257767e-02 1.50823757e-01 1.72815233e-01
      2.73720268e-02 8.19072276e-02 0. 2.50616014e-01 0. 0. 0.
      1.72815233e-01 0. 0. 0. 0. 0. 0. 0. 0. 0. 3.54568809e-01 0. 0. 0.
      7.41636634e-01 0. 3.22022855e-01 1.07614376e-01 3.54568809e-01 0.
      0. 0. 0. 0. 0. 0. 0. 0. 0. 0. 0. 0. 0. 0. 0. 0. 0. 4.87429388e-02
      0. 0. 0. 8.91094580e-02 4.70481738e-02 4.07676369e-01
      1.85285285e-01 7.65228271e-02 1.30099505e-01 4.11747396e-03
      1.23210531e-02 0. 1.25894457e-01 1.88192621e-01 4.09331948e-01
      4.09331948e-01 1.77284911e-01 1.92366950e-02 0. 0. 0.
      4.51489426e-02 2.45437138e-02 1.19443491e-01 5.13107330e-02
      2.61816643e-02 1.03897087e-01 0. 0. 0. 1.17344946e-01
      1.47396281e-01 4.09331948e-01 3.06824058e-01 1.16271652e-01
      1.02073036e-01 4.51260097e-02 1.17050312e-01 3.08919642e-02
      1.22272052e-01 0. 1.28930062e-01 4.78713252e-02 1.02073036e-01
      2.35497341e-01 1.53031480e-02 1.38481244e-01 1.21247858e-01
      2.20193088e-01 0. 7.93370008e-02 4.67723720e-02 2.35497341e-01
      5.50177619e-02 1.33920580e-01 2.11627528e-01 1.19843878e-01
      1.96797088e-01 7.83138275e-02 1.58071488e-01 5.26646003e-02
      3.23038511e-02 2.20065892e-01 3.51532072e-01 3.60097021e-01
      2.98110604e-01 3.60097021e-01 0. 6.53638318e-02 5.22323959e-02
      2.04988793e-01 1.20915487e-01 1.05533659e-01 3.15796196e-01 0.
      4.36277628e-01 0. 0. 0. 1.20915487e-01 1.70332044e-01
      4.45971861e-02 1.33451492e-01 0. 4.86825049e-01 0. 0. 0.
      1.70332044e-01 8.78803208e-02 3.62287015e-02 1.08409800e-01 0.
      3.68339479e-01 0. 4.64292727e-02 1.55158881e-02 8.78803208e-02
      1.12846844e-01 3.22966725e-02 9.66437683e-02 0. 3.80026758e-01 0.
      4.54599932e-02 1.51919322e-02 1.12846844e-01 4.76348680e-03
      6.49316832e-02 1.94300160e-01 0. 3.63092542e-01 0. 2.42352244e-02
      8.09900649e-03 4.76348680e-03 3.17565771e-03 1.45447984e-01
      4.16328043e-01 0. 1.74319491e-01 0. 9.69408676e-02 3.23960185e-02
      3.17565771e-03 9.34776738e-02 3.25052999e-02 9.72680598e-02 0.
      3.52446616e-01 0. 2.13674754e-01 7.14064091e-02 9.34776738e-02
      1.34666979e-01 8.57502520e-02 2.56596476e-01 0. 3.65409076e-01 0.
      3.54927570e-01 1.18610851e-01 1.34666979e-01 1.14155095e-03
      2.66575604e-03 1.35221723e-02 5.75416163e-03 9.23881959e-03 0. 0.
      0. 1.14155095e-03 1.86929718e-01 1.57098025e-01 1.91034794e-01
      2.30166391e-02 2.07639225e-02 0. 0. 2.36025546e-02 3.27173695e-02
      2.85387761e-03 6.82692789e-03 4.33641821e-01 8.26627463e-02
      5.78862913e-02 0. 1.00929744e-03 3.37290345e-04 2.85387761e-03
      3.33136678e-01 3.83108914e-01 5.58135569e-01 3.09488565e-01
      1.20300367e-01 5.54163456e-02 3.45276780e-02 6.31694496e-02
      9.66453701e-02 2.55115479e-01 1.17748506e-01 2.50496596e-01
      5.40583543e-02 4.53339983e-03 0. 0. 5.83547056e-02 3.51524293e-01
      2.40566552e-01 3.02099660e-02 3.25369388e-02 9.94175021e-03
      1.13334984e-03 0. 0. 1.66358680e-01 3.52068871e-01 1.87646344e-01
      1.19856551e-01 3.52068871e-01 2.06506118e-01 1.21298857e-01
      3.14502232e-02 3.29575464e-02 1.02108769e-01 2.68008202e-01
      1.52570412e-01 2.96616163e-02 5.47906309e-02 4.68010120e-02
      2.43650842e-02 5.22904936e-03 1.24696139e-02 2.09761947e-01
      3.52068871e-01 9.17542726e-02 0. 0. 0. 0. 0. 0. 1.50728181e-01
      4.01918560e-01 6.69327602e-02 1.69770210e-03 0. 0. 3.82671296e-03
      4.84315678e-04 8.95769708e-03 3.09121549e-01 2.22800598e-01
      1.41037524e-01 2.35424639e-04 1.93734712e-04 0. 0. 0.
      8.02684168e-04 3.54624540e-01 4.01918560e-01 1.07780978e-01
      6.79080654e-03 0. 0. 0. 7.31075369e-03 1.07478060e-01
      4.01918560e-01 4.01918560e-01 2.01593950e-01 9.16559398e-02
      2.63230428e-02 6.38797134e-03 1.35302460e-02 1.04148556e-02
      8.15106630e-02 3.36018614e-02 1.21734403e-01 2.02792034e-01
      1.37785912e-01 1.23803556e-01 3.11383866e-02 1.52256526e-02 0.
      3.53146009e-02 9.38849747e-02 1.72303006e-01 3.43627661e-01
      3.43627661e-01 1.60010710e-01 2.12433245e-02 4.79661301e-02
      1.23890182e-02 4.02710587e-02 7.42228255e-02 3.43627661e-01
      3.43627661e-01 2.10140094e-01 8.91319811e-02 4.00805324e-02
      2.66621038e-02 3.85223725e-03 9.46840271e-02 3.43627661e-01
      3.43627661e-01 1.93152688e-02 1.65388901e-02 1.04108945e-01
      5.92932403e-02 5.05934298e-01 0. 2.53511399e-01 8.47192779e-02
      1.93152688e-02 0. 0. 0. 0. 3.01816743e-02 0. 0. 0. 0.
      2.36174874e-02 6.61555380e-02 1.97961852e-01 0. 7.60825932e-01 0.
      1.44211963e-01 4.81932275e-02 2.36174874e-02 0. 0. 0. 0.
      4.52725142e-02 0. 0. 0. 0. 1.46562532e-01 4.66228239e-02
      1.39513195e-01 0. 2.17674702e-01 0. 1.35556266e-01 4.53005396e-02
      1.46562532e-01 2.41468668e-01 9.60455462e-02 2.87404448e-01
      3.16085890e-02 1.56021327e-01 0. 2.58963287e-01 8.65411609e-02
      2.41468668e-01 1.75443571e-02 2.65634861e-02 7.94880763e-02 0.
      2.36670777e-01 0. 2.39912584e-01 8.01745802e-02 1.75443571e-02
      1.65180385e-01 4.53602150e-02 1.13219179e-01 4.74128872e-02
      4.32439238e-01 4.23425063e-02 3.89638543e-01 1.27630308e-01
      1.61203474e-01 5.97093953e-03 1.47923743e-02 2.98708469e-01
      2.98708469e-01 8.10211971e-02 4.91365083e-02 9.49687511e-03
      1.73513414e-04 5.97093953e-03 2.58131512e-02 7.73465037e-02
      2.98708469e-01 2.98708469e-01 4.19510938e-02 4.40820195e-02
      1.73324589e-02 3.32197035e-03 3.23758908e-02 4.19759303e-02
      1.08158104e-01 2.23171249e-01 2.65104145e-01 1.96835101e-01
      2.79087454e-01 1.98109403e-01 2.69445237e-02 1.00984937e-02
      1.52788237e-01 2.27083966e-01 2.93450356e-01 2.82734871e-01
      5.28143607e-02 1.20617658e-01 2.58032799e-01 4.72204052e-02
      4.08690833e-02 6.40754551e-02 6.15000166e-02 7.12036639e-02
      8.21588412e-02 2.20713034e-01 2.80167371e-01 2.80167371e-01
      2.57565409e-01 2.07232088e-01 1.39532145e-02 2.92835874e-03
      1.38325728e-02 4.43668775e-02 1.85274631e-01 2.67739683e-01
      1.71359539e-01 2.16613486e-02 1.62642095e-02 1.08690098e-01
      1.39029501e-02 5.99874333e-02 1.01435505e-01 2.80167371e-01
      2.80167371e-01 1.28997043e-01 2.53983080e-01 2.77353704e-01
      2.28429250e-02 8.17389563e-02 6.71926513e-02 9.31395441e-02
      2.80167371e-01 2.80167371e-01 5.81232123e-02 2.67860573e-02
      4.00320701e-02 6.59846589e-02 3.49135660e-02 5.58685623e-02
      3.43305655e-02 3.07350531e-02 1.79470330e-02 3.88336927e-02
      7.96113163e-02 1.27570733e-01 4.20709439e-02 2.56703719e-02
      1.05838351e-01 2.82058686e-01 2.94716239e-01 3.02035958e-01
      2.27272451e-01 1.26328096e-01 3.47128622e-02 2.36770481e-01
      1.59450710e-01 9.47765186e-02 3.29171456e-02 2.09574550e-02
      2.79851612e-02 7.32151866e-02 1.85173959e-01 4.18710947e-01
      1.99499115e-01 1.42046586e-01 1.68528184e-01 3.20997447e-01
      2.24428341e-01 1.32071629e-01 6.98041096e-02 1.00096531e-01
      1.96485698e-01 1.31244946e-03 2.83692469e-04 1.24548720e-02
      2.40430385e-02 2.78481692e-01 3.88834238e-01 1.47848606e-01
      2.82205679e-02 6.43004850e-03 2.47717742e-02 0. 3.98435909e-03
      2.37683579e-02 2.13919804e-01 3.88834238e-01 7.59023428e-02
      3.38720940e-02 2.98666973e-02 1.59113712e-04 4.38159215e-04
      7.19997261e-05 2.61755083e-02 1.72343940e-01 3.88834238e-01
      3.07725132e-01 2.09522229e-02 6.50694827e-04 1.07401563e-02 0. 0.
      2.24315822e-02 1.55027479e-01 3.88834238e-01 2.90751606e-01
      1.78881101e-02 2.40020715e-02 5.80946021e-02 6.08159648e-03
      1.81983877e-02 0. 3.18846285e-01 5.42466901e-02 1.85701281e-01
      5.91550097e-02 5.80946021e-02 0. 0. 0. 0. 4.44380268e-02 0.
      1.62892770e-02 5.44360373e-03 0. 2.11871251e-01 2.43263803e-02
      1.15526259e-01 1.68433681e-01 4.33828950e-01 4.91685867e-01
      4.91685867e-01 4.60592471e-02 2.11871251e-01 3.29314098e-02 0. 0.
      1.34813320e-02 1.80338696e-01 0. 4.56126183e-02 1.52429687e-02
      3.29314098e-02 0. 3.65687758e-02 1.09427713e-01 0. 1.38987988e-01
      0. 0. 0. 0. 1.97192822e-02 7.39100799e-02 3.72401506e-01
      3.41614604e-01 3.18609655e-01 1.52315453e-01 3.68079804e-02
      1.66498255e-02 2.60836445e-02 2.29621977e-02 4.02563810e-02
      1.46746114e-01 2.72730412e-03 2.43244916e-01 0. 3.84660554e-03
      1.28546800e-03 2.29621977e-02 8.69358610e-03 2.00196709e-02
      3.72401506e-01 3.72401506e-01 3.72401506e-01 2.57008851e-01
      5.52119836e-02 6.65992796e-02 4.38937359e-02 1.38433278e-01
      1.88334703e-01 1.16204523e-01 5.73843867e-02 1.13774545e-01
      8.13211352e-02 1.11297727e-01 1.60103574e-01 1.46972373e-01
      2.68909782e-01 2.68909782e-01 1.47302181e-01 8.51384476e-02
      1.23504981e-01 6.49005473e-02 1.89503849e-01 2.06424817e-01
      1.65780157e-01 1.28229082e-01 6.94861040e-02 1.52814254e-01
      2.07621992e-01 2.31667727e-01 7.52061009e-02 3.92064750e-02
      9.08588469e-02 1.08873345e-01 2.68909782e-01 2.68909782e-01
      1.86774135e-01 1.40371859e-01 5.33987656e-02 1.22374371e-01
      1.74765348e-01 2.68909782e-01 2.43027866e-01 1.16653785e-01
      2.49253482e-01 2.37847194e-01 3.14688385e-02 1.29557103e-01
      1.98553577e-01 6.50619864e-02 9.00030658e-02 5.40983491e-02
      1.18890509e-01 2.97116727e-01 2.97116727e-01 8.05026516e-02
      1.10776164e-01 7.92189166e-02 4.25323769e-02 7.92858973e-02
      7.13392943e-02 2.03433350e-01 2.97116727e-01 1.85098991e-01
      1.33022696e-01 1.17871590e-01 1.85607269e-01 4.93811704e-02
      5.47626428e-02 9.74667594e-02 1.32500291e-01 2.97116727e-01
      2.97116727e-01 2.27427676e-01 1.29112288e-01 2.27070123e-01
      3.92418653e-02 9.06253327e-03 5.26401512e-02 1.19381502e-01
      1.07483245e-01 1.89061001e-01 3.28817159e-01 2.52705663e-01
      5.46146184e-02 5.73989004e-02 7.24529773e-02 3.14271189e-02
      4.19813953e-02 4.44275439e-02 1.96169749e-01 3.28817159e-01
      1.70637026e-01 6.35683984e-02 4.22324836e-02 2.90513318e-02
      3.01465895e-02 1.01821803e-01 9.94670242e-02 3.28817159e-01
      3.28817159e-01 2.75177509e-01 2.72037219e-02 6.97079822e-02
      1.01854041e-01 4.74881902e-02 2.20298454e-01 5.24130426e-02
      1.63593024e-01 2.75848597e-01 1.85574576e-01 9.65011790e-02
      1.13680266e-01 8.64421874e-02 1.22077689e-01 1.14783309e-02
      2.13728175e-02 1.05988821e-02 2.71985885e-02 3.20294768e-01
      3.20294768e-01 9.18169841e-02 3.43099311e-02 4.71876143e-03
      3.68267596e-02 3.02834697e-02 1.36107588e-02 3.78084816e-02
      2.30299100e-01 3.14181685e-01 3.20294768e-01 1.80865899e-01
      4.71017323e-02 3.26459575e-03 1.11980205e-02 1.55028719e-02
      1.62640646e-01 3.20294768e-01 2.66964406e-01 2.80503351e-02
      3.12285102e-03 6.14810386e-04 2.08698474e-02 4.51708511e-02
      2.68495530e-02 1.70485824e-01 3.20294768e-01 3.20294768e-01
      2.10201710e-01 6.03786483e-02 2.53377892e-02 9.49170161e-03
      2.33124825e-04 4.26178752e-03 2.69357730e-02 2.40816344e-02
      3.58624965e-01 3.90359968e-01 4.09246273e-02 9.17226449e-03
      1.57950614e-02 8.74341989e-04 9.00904555e-03 2.04361510e-02
      2.95777824e-02 1.04748815e-01 3.90359968e-01 4.70657013e-02
      1.57950614e-02 8.09867959e-03 5.93449268e-03 5.90419862e-03
      2.54603289e-02 3.41468453e-02 2.17522949e-01 3.90359968e-01
      1.36917397e-01 1.16026625e-02 3.98329161e-02 4.17267554e-04
      4.44760034e-03 1.40863415e-02 2.06740871e-02 9.83685479e-02
      3.90359968e-01 3.90359968e-01 8.54063109e-02 2.36086547e-02
      7.97135103e-03 3.58777270e-02 1.84346344e-02 1.15553021e-01
      1.24180801e-01 9.28218141e-02 3.04076876e-02 2.36086547e-02
      7.13043055e-03 4.10449645e-03 1.40366778e-01 2.09295660e-01
      3.74959916e-01 3.74959916e-01 9.63387191e-02 2.31121294e-02
      5.44966292e-03 6.75602108e-02 8.26441217e-03 1.40747381e-02 0.
      8.84918869e-02 1.19020335e-01 1.56194910e-01 2.95983255e-01
      1.67479619e-01 3.84006426e-02 1.55041162e-02 3.06751914e-02
      3.98960337e-02 3.74959916e-01 3.74959916e-01 3.74959916e-01
      6.52868822e-02 5.78787364e-02 1.51723959e-02 2.78113000e-02
      2.36770302e-01 2.97719240e-01 1.35936081e-01 2.84407288e-02
      3.95290442e-02 5.29402867e-02 6.61395863e-03 1.09005406e-01
      1.96637034e-01 1.87784970e-01 2.97719240e-01 1.89218059e-01
      1.65647134e-01 1.32870510e-01 2.36251373e-02 2.72142049e-02
      8.15052073e-03 4.43065390e-02 1.73803374e-01 2.97719240e-01
      2.97719240e-01 2.97719240e-01 1.29855081e-01 8.72168839e-02
      3.32541838e-02 5.18006645e-02 1.05315484e-01 1.45453110e-01
      2.97719240e-01 2.97719240e-01 1.73003584e-01 6.20117411e-02
      2.62803417e-02 2.43000481e-02 6.38746247e-02 8.57909992e-02
      2.17497066e-01 1.43452778e-01 4.35356684e-02 1.19859710e-01
      2.71638453e-01 2.39938676e-01 8.03274512e-02 6.76704645e-02
      9.64002460e-02 2.71638453e-01 2.43560493e-01 1.02642089e-01
      2.52970248e-01 6.41237870e-02 6.98724240e-02 7.43912458e-02
      4.68137227e-02 1.22979842e-01 2.48551175e-01 2.48656943e-01
      1.07313879e-01 7.73171633e-02 2.12513179e-01 2.17490777e-01
      4.25193571e-02 4.13032621e-02 8.27010497e-02 1.55813605e-01
      2.57035792e-01 1.35543406e-01 2.36292899e-01 1.67759925e-01
      2.67452627e-01 4.88837101e-02 2.63068408e-01 1.06020339e-01
      9.32671949e-02 1.42936826e-01 1.33737549e-01 6.67273030e-02
      1.58329178e-02 1.40493691e-01 1.98221460e-01 2.29329020e-01
      1.25144511e-01 6.08264245e-02 5.55953644e-02 2.22218767e-01
      2.24772036e-01 6.82950020e-02 7.99278691e-02 7.70147145e-02
      1.91691503e-01 1.27790183e-01 2.81757176e-01 2.93465048e-01
      2.54248261e-01 9.99227092e-02 2.71413196e-02 9.87293720e-02
      1.86384127e-01 1.62047848e-01 2.93465048e-01 2.93465048e-01
      1.74297646e-01 1.88836321e-01 8.58459771e-02 1.30422777e-02
      2.14395262e-02 5.44638708e-02 8.81444514e-02 7.37899840e-02
      1.24749459e-01 1.79036409e-01 1.47960708e-01 5.30884862e-02
      6.82513416e-02 4.58791852e-02 4.52574864e-02 2.97611177e-01
      2.97611177e-01 9.20301229e-02 7.36921579e-02 7.46074170e-02
      3.96150090e-02 4.38679270e-02 5.03878072e-02 1.04363173e-01
      1.52090564e-01 1.09444134e-01 8.77345875e-02 4.45461869e-02
      6.52994215e-02 9.48464498e-02 2.97611177e-01 2.97611177e-01
      1.73945993e-01 2.97611177e-01 2.53200501e-01 4.94106859e-02
      2.01814026e-02 3.28841507e-02 1.57707304e-01 2.97611177e-01
      2.97611177e-01 2.55059093e-01 3.59130986e-02 3.66334505e-02
      1.98705852e-01 1.75676197e-01 2.69296952e-02 0. 1.80873193e-03
      6.42625839e-02 6.31879792e-02 9.81299281e-02 3.24953571e-02
      7.37674236e-02 5.65215871e-02 1.02920756e-02 2.93377112e-03
      6.46887049e-02 6.43975019e-01 6.43975019e-01 7.61694368e-03
      9.35413036e-03 1.03549741e-01 1.63801536e-01 9.94066447e-02
      1.30915912e-02 1.06481826e-02 2.92435056e-03 7.61694368e-03
      1.46677243e-02 2.45201699e-02 5.24932742e-02 5.55606671e-02
      4.23766784e-02 6.58836216e-03 3.55956368e-02 2.64871418e-02
      1.77367460e-02 6.41126186e-02 5.26990229e-03 2.62463908e-03 0.
      1.74032128e-03 3.64238193e-04 3.27251554e-02 4.53489393e-01
      4.53489393e-01 1.70591086e-01 1.77049227e-02 6.56159769e-04 0.
      3.38075007e-03 3.52147929e-02 7.25251138e-02 4.53489393e-01
      4.53489393e-01 1.85441840e-02 4.56355017e-04 1.06987904e-03 0.
      5.74580580e-03 1.50746631e-03 7.13668531e-03 2.26450227e-02
      9.22027975e-02 7.98480511e-02 3.74906836e-03 2.45197513e-03 0.
      6.26360439e-03 3.25566251e-03 7.91976973e-03 1.01792276e-01
      3.24651062e-01 1.47144705e-01 3.16409282e-02 4.27107997e-02
      4.69746962e-02 4.71157171e-02 3.82883362e-02 2.04847813e-01
      3.01830113e-01 3.01830113e-01 3.01830113e-01 7.51674101e-02
      4.45040353e-02 7.86571428e-02 8.98408666e-02 7.53710717e-02
      1.51825294e-01 2.97371060e-01 1.86640739e-01 1.41454369e-01
      2.99174833e-04 6.07041875e-03 7.52706919e-03 8.70580971e-03 0.
      1.81639299e-01 3.01830113e-01 2.81188548e-01 3.01830113e-01
      9.61100459e-02 1.05404854e-02 2.04975512e-02 2.32665204e-02
      1.12873036e-03 1.04089633e-01 2.25330874e-01 3.01830113e-01
      1.75261527e-01 1.37584612e-01 1.01690114e-01 2.51786202e-01
      5.26787676e-02 7.93791339e-02 4.64150310e-02 3.55441421e-02
      1.12650663e-01 2.83927619e-01 2.35100016e-02 5.99296056e-02
      3.73357050e-02 2.04557963e-02 4.35092635e-02 1.39184957e-02
      3.65183018e-02 2.82375485e-01 4.31314766e-01 2.59885639e-01
      3.93202342e-02 7.26651773e-02 9.44729000e-02 1.66343413e-02
      1.06557673e-02 2.20290720e-02 1.99165002e-01 4.31314766e-01
      2.65854776e-01 1.53457588e-02 2.79187248e-03 6.23765588e-02
      1.36301003e-03 3.43529927e-03 1.78323425e-02 3.26117784e-01
      1.75946608e-01 1.81012034e-01 1.66159093e-01 6.91071972e-02
      1.08009232e-02 5.36849769e-03 3.49103822e-04 4.36231447e-03
      3.92720699e-02 3.67885143e-01 1.70049727e-01 1.66131258e-01
      4.22745310e-02 6.18556468e-03 1.11090485e-02 3.96358082e-03
      5.74921351e-03 9.53329951e-02 4.02398556e-01 4.02398556e-01
      3.07944696e-02 1.56197809e-02 6.35695551e-03 1.88823335e-03 0.
      1.42249195e-02 6.72762841e-02 4.02398556e-01 4.02398556e-01
      1.58903226e-02 9.86604020e-03 2.46368442e-03 4.07971768e-03
      9.90895205e-04 1.90133788e-02 2.02054381e-01 3.31739008e-01
      1.28850967e-01 1.72410905e-02 8.47126544e-03 8.48466344e-03
      6.22853031e-03 7.30231311e-03 9.81948432e-03 6.17942624e-02
      3.31739008e-01 2.69803375e-01 2.22967729e-01 2.31934980e-01
      3.19388062e-01 1.78978607e-01 8.77774283e-02 2.38522720e-02
      3.98093238e-02 3.31739008e-01 2.00473890e-01 7.17266416e-03
      1.18402345e-03 0. 0. 0. 1.42354099e-02 1.44225284e-01
      3.31739008e-01 3.21633935e-01 1.52456760e-01 7.79860020e-02
      9.04184282e-02 0. 0. 0. 1.14164688e-01</_>
    <_>
      2.05169305e-01 1.36842459e-01 3.43687624e-01 2.47807149e-02
      1.43649876e-01 0. 0. 0. 1.78120032e-01 3.44389200e-01
      1.33098751e-01 1.42281190e-01 8.56925268e-03 2.38060102e-01 0.
      8.04250967e-03 1.16955906e-01 3.40794265e-01 5.45217730e-02
      9.91347283e-02 2.55852491e-01 4.12566727e-03 2.75708079e-01 0. 0.
      0. 5.40539697e-02 1.45592213e-01 1.61680654e-01 1.20267019e-01
      2.14231294e-03 3.44389200e-01 1.03073552e-01 9.14139450e-02
      1.71730295e-01 1.88019544e-01 8.93344209e-02 1.23293959e-01
      3.85431498e-02 0. 3.81167755e-02 4.77340585e-03 5.93991019e-03
      2.04787031e-02 7.51616806e-02 9.81996581e-02 4.12482411e-01
      2.34811574e-01 9.09799302e-04 1.97212268e-02 2.04225667e-02
      1.06300302e-02 1.27296429e-02 7.08102211e-02 1.27796799e-01
      4.12482411e-01 4.12482411e-01 3.54604068e-04 8.22314993e-03
      7.16010900e-03 1.33690462e-02 5.40780425e-02 4.00499292e-02
      1.21429190e-01 4.12482411e-01 4.12482411e-01 5.28965192e-03
      7.89773930e-03 1.64898857e-02 1.68943498e-02 6.60205707e-02
      3.37379538e-02 2.73397923e-01 2.92924762e-01 1.14447244e-01
      8.62352550e-02 7.11194575e-02 1.07501544e-01 6.50655702e-02
      7.86815733e-02 2.36089498e-01 2.70012707e-01 2.92924762e-01
      2.92924762e-01 1.66830629e-01 4.62559313e-02 1.10385992e-01
      6.61821961e-02 4.78526801e-02 1.08056657e-01 1.74153939e-01
      2.54298598e-01 1.29361153e-01 1.72655284e-01 1.64862379e-01
      7.71429166e-02 2.15760171e-02 1.21023111e-01 1.81883737e-01
      1.68645427e-01 2.53032893e-01 1.87509388e-01 2.13623926e-01
      1.09838486e-01 6.20370395e-02 2.62081008e-02 9.13113654e-02
      8.44045281e-02 1.94331169e-01 2.87031263e-01 1.30289316e-01
      1.01260997e-01 2.32353598e-01 2.72672810e-02 1.51030133e-02
      4.39734124e-02 8.63059163e-02 1.47593588e-01 1.13291465e-01
      4.31897230e-02 1.60102889e-01 3.23715299e-01 1.83510929e-01
      1.10731781e-01 1.98364720e-01 1.51038766e-01 1.47049680e-01
      4.82951850e-02 3.50010209e-02 1.78947955e-01 3.23715299e-01
      1.03230096e-01 1.82877667e-02 4.59765010e-02 2.36878023e-01
      6.19528033e-02 9.50980410e-02 7.11027011e-02 1.51821911e-01
      3.23715299e-01 3.23715299e-01 1.54327005e-01 2.79934276e-02
      6.04401864e-02 5.01641557e-02 8.61938745e-02 5.59183098e-02
      1.20718423e-02 9.09279063e-02 6.62009642e-02 2.69146442e-01
      2.69146442e-01 2.69146442e-01 5.70999384e-02 1.34158745e-01
      7.86446035e-02 1.43097974e-02 2.69146442e-01 1.88738674e-01
      2.32569367e-01 2.28886515e-01 2.41105676e-01 4.48576473e-02
      8.41986686e-02 9.43300948e-02 4.94150519e-02 2.69146442e-01
      2.69146442e-01 2.08926931e-01 2.14142993e-01 1.99952394e-01
      4.07520309e-02 6.33723959e-02 1.34342611e-01 4.66865674e-02
      2.24102676e-01 1.94105461e-01 1.35836914e-01 1.24502994e-01
      1.06000014e-01 1.46586746e-01 5.11613302e-02 1.99489277e-02
      3.86262089e-02 1.53166160e-01 1.32384315e-01 8.17345530e-02
      1.59519777e-01 1.25190064e-01 8.60288367e-02 1.94036681e-02
      4.92445342e-02 6.77083200e-03 1.52268529e-01 2.16523811e-01
      2.44214252e-01 1.38315871e-01 8.38195607e-02 4.13755625e-02
      3.02197896e-02 8.79982263e-02 1.82670921e-01 3.32670480e-01
      1.62465900e-01 3.75393741e-02 2.97928806e-02 3.82764675e-02
      1.15589790e-01 3.26153496e-03 1.86906442e-01 2.97397465e-01
      3.32670480e-01 2.72237033e-01 3.32670480e-01 2.58741766e-01
      1.79071993e-01 4.89283167e-02 7.56275505e-02 9.97946486e-02
      7.48404190e-02 4.87905256e-02 2.01380998e-02 1.33137563e-02
      3.52298701e-03 3.59857902e-02 7.32684359e-02 1.18326463e-01
      3.81339282e-01 3.81339282e-01 6.73085973e-02 3.00769769e-02
      1.08647533e-02 5.38425194e-03 8.28215033e-02 3.29058394e-02
      9.03921574e-02 3.19571972e-01 3.81339282e-01 1.19046554e-01
      2.61147171e-02 9.18082427e-03 1.79953990e-03 1.51403239e-02
      4.57055122e-02 2.06645593e-01 3.81339282e-01 3.81339282e-01
      1.84921175e-01 4.06250767e-02 1.28052039e-02 1.74246990e-04
      4.45500202e-02 5.52914627e-02 5.47836721e-01 5.47836721e-01
      1.50093138e-01 5.19720167e-02 1.25500998e-02 4.13049683e-02
      1.07120303e-02 2.62966612e-03 1.51605174e-01 2.09858045e-01
      1.40429795e-01 5.44516221e-02 5.23438007e-02 2.65174685e-03
      1.13136070e-02 2.41604783e-02 2.41994355e-02 4.61818604e-03
      1.28718466e-02 1.61925033e-01 1.16724834e-01 1.51151359e-01
      4.02072705e-02 3.67694423e-02 5.28173521e-03 2.24921433e-03
      8.02783296e-02 3.75019722e-02 1.09719522e-01 2.15012044e-01
      3.67999285e-01 3.29334922e-02 2.94228531e-02 2.86532603e-02
      7.70243583e-03 9.03670937e-02 7.08360523e-02 1.24820732e-02
      2.67415121e-02 5.22509404e-02 7.62359705e-04 1.18112527e-02
      3.01491581e-02 6.86844885e-02 3.44738886e-02 2.65567377e-02
      1.57758743e-02 9.06062219e-03 5.80867529e-02 1.45718837e-02
      2.89156456e-02 3.31737995e-02 4.09174487e-02 4.08478886e-01
      3.19435865e-01 8.60732328e-03 2.73001462e-01 4.08478886e-01
      3.92394930e-01 5.19785434e-02 1.01730168e-01 8.85934606e-02
      1.73625544e-01 8.93902853e-02 2.05742437e-02 4.13872562e-02
      4.08478886e-01 2.49204770e-01 3.57597433e-02 7.17189163e-02
      5.53743318e-02 1.25241742e-01 1.34295434e-01 9.10551995e-02
      1.62384197e-01 1.56903028e-01 9.43394974e-02 1.35191754e-01
      1.22186989e-01 4.15122837e-01 2.85685547e-02 9.01155025e-02
      7.06773549e-02 1.34982854e-01 3.96879613e-01 5.63741922e-01
      3.16799700e-01 1.76052488e-02 1.04020938e-01 3.81581523e-02
      5.83944619e-02 4.41897400e-02 4.80199642e-02 6.65372685e-02
      5.24435658e-03 3.19363400e-02 4.71348688e-02 1.30469248e-01
      1.45427827e-02 3.79526727e-02 5.71663305e-02 4.37528901e-02
      1.28474340e-01 3.66868116e-02 7.90035576e-02 2.32048165e-02
      4.52003665e-02 2.67882705e-01 2.93424398e-01 9.69063565e-02
      3.00930023e-01 3.00930023e-01 2.92348295e-01 3.00930023e-01
      1.80629760e-01 3.00930023e-01 1.20150216e-01 2.56355166e-01
      1.13843441e-01 2.91278899e-01 3.00930023e-01 2.34242976e-02
      6.07499015e-03 4.03193794e-02 1.05097584e-01 1.53732538e-01
      7.62397572e-02 6.18418027e-03 1.42122600e-02 4.60081361e-03
      6.35252567e-03 4.51256968e-02 1.47529785e-02 1.57708570e-01
      6.30241260e-02 5.93698993e-02 1.52974380e-02 2.70135235e-02
      1.13718044e-02 0. 1.18098990e-03 6.23587798e-03 4.62110080e-02
      5.54314283e-05 4.53106186e-04 3.08661954e-03 2.06093043e-01
      3.42012674e-01 2.33832048e-04 6.82771206e-05 2.28170156e-05 0.
      5.74135743e-02 7.07511231e-02 2.80922204e-02 3.55450273e-01
      3.58566433e-01 1.42480269e-01 2.13370863e-02 3.83696966e-02
      1.31667331e-01 1.02892933e-04 7.64991157e-04 2.78356229e-03
      3.29917938e-01 3.58566433e-01 0. 0. 0. 0. 4.07919846e-02
      3.12229129e-03 1.66494423e-03 3.58566433e-01 3.58566433e-01
      1.85343653e-01 3.90286297e-02 1.56319384e-02 3.20953466e-02
      1.44660957e-02 1.73558234e-04 1.29707456e-01 3.02275002e-01
      2.46148705e-01 1.28111660e-01 3.65645885e-02 2.96250149e-03
      3.67598282e-03 7.95156881e-03 1.15705487e-04 6.04828596e-02
      3.02275002e-01 3.02275002e-01 1.74041286e-01 8.20503533e-02
      3.74391265e-02 1.42151676e-03 3.76666710e-03 0. 8.20182934e-02
      2.65789896e-01 2.83820510e-01 2.61338025e-01 1.93692401e-01
      1.01384394e-01 5.61999995e-03 0. 0. 8.09671823e-03 9.45020393e-02
      1.89182952e-01 2.89134920e-01 3.02275002e-01 3.02275002e-01
      1.17002977e-02 8.79244134e-03 7.89993256e-03 6.39705826e-03
      1.73108559e-02 5.64824156e-02 9.58364010e-02 3.25365141e-02
      3.04259695e-02 2.26959102e-02 8.97179823e-03 1.05258627e-02
      3.56435939e-03 8.71169865e-02 2.43507892e-01 2.51534283e-01
      9.05041546e-02 2.58513931e-02 3.34012904e-03 2.86377128e-02
      3.17121460e-03 8.35104939e-03 1.55034102e-02 3.05101424e-02
      4.17373963e-02 8.03936943e-02 5.13512552e-01 5.13512552e-01
      3.03244423e-02 2.55111735e-02 3.24216448e-02 6.28667846e-02
      1.86841667e-01 2.98483104e-01 2.63292313e-01 2.39624500e-01
      2.12843835e-01 5.22037558e-02 4.69139554e-02 5.28184287e-02
      3.69451106e-01 3.69451106e-01 2.94081539e-01 1.55756935e-01
      3.45208019e-01 1.90557495e-01 2.17586979e-02 3.35920788e-02
      3.83728705e-02 2.65886575e-01 3.69451106e-01 1.84135213e-01
      5.76931350e-02 9.01136622e-02 5.23701645e-02 8.22724402e-02
      7.74600282e-02 1.47668328e-02 3.61790247e-02 2.37674564e-01
      1.04384355e-01 2.08855599e-01 9.29198489e-02 6.74496219e-02
      6.24768548e-02 6.86328411e-02 1.86477154e-02 2.26513576e-02
      1.65775016e-01 9.55663919e-02 6.95207417e-02 2.52253674e-02
      3.12183984e-02 6.71391040e-02 1.95427209e-01 2.38356873e-01
      8.29131752e-02 5.54830730e-02 0. 0. 8.51572771e-03 1.20615289e-02
      1.64939642e-01 2.10587367e-01 9.10366401e-02 4.16012220e-02
      5.47876544e-02 7.18664983e-03 1.63545962e-02 5.39309345e-02
      5.17826863e-02 1.65552661e-01 5.04407048e-01 3.98055226e-01
      4.59079407e-02 1.01353517e-02 0. 0. 1.98673531e-02 3.71330380e-02
      3.88093948e-01 2.44084299e-01 1.10823616e-01 8.86661932e-03
      2.69304682e-02 1.84944402e-02 5.13896011e-02 1.87521130e-01
      2.92750835e-01 3.10410112e-02 3.77567969e-02 3.60075161e-02
      1.44644985e-02 1.91677660e-02 3.75691727e-02 5.45006767e-02
      2.60244552e-02 2.93011554e-02 1.90370288e-02 1.18581399e-01
      3.04901809e-01 1.37430102e-01 4.57799099e-02 2.53804424e-03
      1.26942517e-02 3.82512994e-03 1.47167770e-02 3.97820845e-02
      1.86271071e-01 1.66239426e-01 4.66441596e-03 1.05425939e-02
      2.62772311e-02 1.04307234e-01 1.08450301e-01 1.65047888e-02
      2.79570967e-02 3.71319354e-01 7.46670783e-01 2.63433337e-01
      9.05491132e-03 0. 1.23031242e-02 1.10177705e-02 3.96846514e-03
      3.53548021e-05 2.54021026e-03 3.52943093e-02 3.72615725e-01
      3.37876469e-01 5.29533997e-03 0. 0. 0. 7.56723881e-02
      5.45388646e-02 1.56491831e-01 3.72615725e-01 3.37039977e-01
      1.40760476e-02 4.09257133e-03 9.59489960e-03 3.50654237e-02
      4.85702837e-03 5.36222057e-03 7.10579231e-02 3.72615725e-01
      2.31238812e-01 1.29129682e-02 1.31186498e-02 4.70717158e-03 0.
      5.63283041e-02 4.00761142e-02 2.19943732e-01 3.72615725e-01
      2.51791477e-01 2.08504442e-02 2.15924606e-02 1.53511697e-02
      2.28046626e-02 3.48736644e-02 8.79872963e-03 3.66844684e-02
      2.90141582e-01 3.79881710e-01 2.22092401e-02 8.82922634e-02
      5.42387553e-02 3.61988693e-02 6.93705603e-02 2.19968194e-03
      1.25440734e-03 1.20353960e-02 2.28700966e-01 0. 2.89561629e-01
      3.79881710e-01 1.53015912e-01 4.06750403e-02 4.75218855e-02
      2.46043596e-02 2.95942932e-01 3.79881710e-01 2.49603949e-02
      8.17579925e-02 5.12568466e-02 4.05054055e-02 7.46594667e-02
      1.07863210e-02 6.15108805e-03 0. 3.53863060e-01 0. 2.28360787e-01
      8.38114023e-02 7.47558251e-02 5.92250004e-02 1.24875661e-02 0. 0.
      1.60509963e-02 0. 7.76279792e-02 4.50401634e-01 3.53000551e-01
      5.10331579e-02 1.73601825e-02 0. 0. 2.53255647e-02 8.97909421e-03
      2.92841464e-01 4.50401634e-01 3.06626797e-01 2.80517880e-02
      5.52303204e-03 7.30369007e-03 0. 3.37580368e-02 0. 2.51049660e-02
      6.05492964e-02 4.40235063e-02 7.62865841e-02 2.44843345e-02
      1.39699588e-02 0. 8.36439207e-02 0. 1.40546069e-01 4.50401634e-01
      1.65368721e-01 9.45331622e-03 3.75368423e-03 8.14681465e-04
      7.37769355e-04 6.38055196e-03 8.81392136e-03 1.19636804e-01
      4.68876183e-01 7.72501230e-02 1.96521077e-02 2.69582495e-02
      8.38097837e-03 2.01788009e-03 1.24043913e-03 3.88000713e-04
      1.15897739e-02 9.52164754e-02 4.19336818e-02 1.86963305e-02
      2.02439688e-02 6.81038364e-04 0. 2.40800367e-03 0. 3.54942441e-01
      4.68876183e-01 2.10787982e-01 3.83498482e-02 4.30321172e-02
      9.73319355e-03 5.50019613e-05 0. 0. 1.88184395e-01 4.68876183e-01
      3.05153638e-01 2.70979553e-02 2.30199009e-01 1.57489210e-01
      9.03033316e-02 1.45734427e-02 1.57994777e-02 1.49853835e-02
      1.22637721e-02 1.33896656e-02 6.78293779e-02 1.19855762e-01
      6.60906583e-02 4.08029072e-02 9.68794972e-02 1.07760340e-01
      5.13895117e-02 7.43186772e-02 1.02352388e-01 2.88051933e-01
      3.02925020e-01 2.37718388e-01 1.29587635e-01 2.23107580e-02
      1.89182386e-02 6.20388575e-02 3.41969579e-01 3.38104486e-01
      3.25833619e-01 1.42151549e-01 5.95999360e-02 2.82063838e-02
      5.46406172e-02 7.91103989e-02 1.21921688e-01 3.03392678e-01
      3.35844934e-01 5.23963720e-02 6.74989372e-02 6.81176558e-02
      9.02531855e-03 1.11686985e-03 8.58436513e-04 2.05966108e-03
      4.72721923e-03 2.27526613e-02 1.46207530e-02 1.48658916e-01
      4.16947871e-01 9.25822183e-02 0. 0. 0. 0. 4.20645723e-04
      2.03985706e-01 3.95236135e-01 1.15280449e-01 8.60738475e-03 0. 0.
      2.04867887e-04 1.74388906e-03 9.12642106e-02 7.02823028e-02
      5.24672687e-01 5.24672687e-01 4.91066203e-02 0. 0. 0. 0.
      5.38326474e-03 7.14461261e-04 5.53531870e-02 3.06336939e-01
      2.47052640e-01 1.58124149e-01 1.65835731e-02 3.17202508e-02
      5.70527911e-02 6.52417773e-04 8.05500075e-02 2.44369656e-02
      1.67765141e-01 1.62442267e-01 3.06336939e-01 9.88478139e-02
      1.47625238e-01 1.36133298e-01 1.48384133e-02 3.44487466e-02
      1.38897538e-01 3.06336939e-01 1.65878534e-01 1.37511566e-01
      1.65429205e-01 6.51683882e-02 1.45043761e-01 1.06715858e-02
      8.03094581e-02 6.57336935e-02 7.38864243e-02 1.92848682e-01
      3.06336939e-01 3.06336939e-01 3.06336939e-01 2.34194547e-01
      1.93366650e-02 2.27213383e-01 3.62692736e-02 2.67866086e-02
      1.73612863e-01 5.19056976e-01 1.66508481e-02 5.21662040e-03
      1.27570741e-02 2.26714253e-01 1.90970823e-01 5.84803615e-03
      3.33494507e-03 0. 3.30361247e-01 0. 1.21747225e-03 2.13490520e-03
      1.90970823e-01 1.69035137e-01 0. 5.37872836e-02 8.92606098e-03
      5.19056976e-01 2.49762740e-02 3.48771401e-02 1.29469521e-02
      1.69035137e-01 1.44836083e-01 0. 0. 0. 1.84656516e-01 0. 0. 0.
      1.44836083e-01 3.87443423e-01 2.78996788e-02 8.34862962e-02 0.
      6.82257533e-01 0. 0. 0. 3.87443423e-01 1.88490704e-01
      8.07951540e-02 2.41769195e-01 0. 2.50589252e-01 0. 0. 0.
      1.88490704e-01 7.58548826e-02 0. 0. 0. 0. 0. 0. 0. 7.58548826e-02
      0. 0. 0. 0. 0. 0. 0. 0. 0. 2.37311795e-02 3.28766629e-02 0. 0.
      3.76844406e-02 0. 1.09794214e-02 5.84043004e-02 3.75060365e-02
      1.84181467e-01 1.19951159e-01 1.54500112e-01 0. 2.19881356e-01 0.
      3.64292592e-01 5.04639566e-01 2.90946215e-01 4.53558974e-02 0. 0.
      0. 1.64150879e-01 0. 0. 0. 4.53558974e-02 1.76808581e-01
      5.20417243e-02 1.55728355e-01 0. 5.04639566e-01 0. 1.31437868e-01
      4.39243056e-02 1.76808581e-01 5.57251126e-02 9.63835139e-03
      1.60230566e-02 6.26465422e-04 4.65888306e-02 0. 2.04614662e-02
      3.78876716e-01 3.78876716e-01 3.64750326e-01 3.86382565e-02
      2.29373388e-02 2.50586122e-03 1.83085576e-02 0. 8.14233534e-03
      3.78876716e-01 3.78876716e-01 3.97805050e-02 1.77401695e-02
      5.90129383e-02 9.39698250e-04 1.34290487e-01 0. 1.92092191e-02
      1.20685779e-01 1.29069805e-01 2.05356643e-01 4.63055968e-02
      1.11514866e-01 3.75879160e-03 8.45003501e-02 0. 3.04110115e-03
      1.34314686e-01 3.78876716e-01 4.27937567e-01 4.27937567e-01
      1.53516948e-01 0. 0. 0. 0. 4.33956087e-02 8.57297555e-02
      1.96778297e-01 4.27937567e-01 3.31466228e-01 0. 1.73308887e-02 0.
      0. 1.00354468e-02 1.02010533e-01 2.43495926e-01 1.93727851e-01
      1.80792451e-01 0. 2.13813270e-03 0. 0. 3.16419229e-02
      1.23620793e-01 1.30565166e-01 1.33724064e-01 2.36767635e-01
      1.31563086e-03 3.79226580e-02 7.75411492e-04 4.89142630e-03
      6.69029681e-03 1.25867724e-01 1.44170895e-01 1.95870802e-01
      7.35597014e-02 1.91805977e-02 4.91799116e-02 1.53499597e-03
      1.30946422e-02 0. 6.09049350e-02 1.80759370e-01 2.23460600e-01
      1.48912162e-01 4.01768982e-02 1.31366178e-01 3.34975749e-01
      3.34975749e-01 0. 1.02263264e-01 1.13186546e-01 3.34975749e-01
      2.22361788e-01 4.45698239e-02 2.52801664e-02 1.03860744e-03
      6.55171042e-03 0. 2.98920460e-02 2.12818041e-01 3.34975749e-01
      3.34975749e-01 2.87269711e-01 5.33881076e-02 6.83272704e-02
      3.96956690e-02 1.92337353e-02 1.64822206e-01 6.55357093e-02
      6.20567314e-02 4.14016731e-02 2.49235351e-02 1.89490646e-01
      3.57169956e-01 2.23196730e-01 1.57205053e-02 5.50025962e-02
      4.17169966e-02 2.72257924e-02 6.94425851e-02 0. 1.51483610e-01
      3.18764225e-02 2.34969370e-02 6.35905191e-03 4.17169966e-02
      1.21110365e-01 3.70878987e-02 2.57758703e-02 6.23088283e-03
      4.11263913e-01 4.11263913e-01 4.11263913e-01 5.69201559e-02
      2.32698634e-01 6.71566799e-02 3.99968103e-02 1.19685456e-01 0.
      3.18028659e-01 1.51091367e-01 6.90059215e-02 4.23936732e-03
      6.71566799e-02 4.53703888e-02 2.59057581e-02 7.75198340e-02 0.
      1.16764113e-01 0. 0. 0. 4.53703888e-02 2.40052510e-02 0. 0. 0. 0.
      0. 0. 0. 2.40052510e-02 4.51070935e-01 7.57590011e-02
      2.26698995e-01 0. 1.46175876e-01 0. 2.23969847e-01 7.48467892e-02
      4.51070935e-01 2.82955706e-01 6.44444600e-02 1.92841649e-01 0.
      2.60735959e-01 0. 3.76263976e-01 1.25740811e-01 2.82955706e-01
      2.39087865e-02 0. 0. 0. 4.64941896e-02 0. 0. 0. 2.39087865e-02
      7.59824440e-02 3.13809030e-02 2.59505659e-01 2.05536373e-02
      1.93547398e-01 2.48668343e-02 6.60588071e-02 1.49285560e-02
      7.59824440e-02 7.14979395e-02 1.32515607e-02 3.96535695e-02 0.
      1.52009904e-01 0. 3.31705995e-02 1.10850316e-02 7.14979395e-02
      4.51842956e-02 7.18207359e-02 4.98024374e-01 4.98024374e-01
      4.98024374e-01 3.73002551e-02 1.21201955e-01 1.41679361e-01
      2.12172925e-01 1.78292871e-01 2.88675159e-01 2.03495994e-01
      9.32302475e-02 1.73904404e-01 6.76036477e-02 8.34517628e-02
      4.96347062e-02 1.86375529e-01 4.06254567e-02 3.30156796e-02
      2.09767129e-02 1.25103351e-02 1.05862938e-01 5.50768785e-02
      5.69414422e-02 1.56331677e-02 7.05810860e-02 1.25133023e-01
      3.60706776e-01 3.60706776e-01 3.60706776e-01 3.60706776e-01
      8.49962980e-02 7.62126893e-02 9.49426815e-02 1.22141533e-01
      7.18149990e-02 1.07937701e-01 8.13240185e-02 5.55733629e-02
      3.34136188e-01 7.16758668e-02 4.83829714e-02 2.83168089e-02
      8.15553442e-02 2.01647669e-01 2.95351684e-01 1.85881168e-01
      3.65835242e-02 1.97549671e-01 0. 0. 0. 8.36158991e-02
      2.62117058e-01 3.63159031e-01 2.92835385e-01 4.85015661e-02
      2.76718378e-01 3.14101169e-04 2.01814971e-03 9.59251169e-03
      1.44737855e-01 2.71446824e-01 1.93067819e-01 1.81397825e-01
      1.81188192e-02 7.51768947e-02 0. 0. 0. 2.11125910e-01
      1.99607372e-01 2.90240467e-01 2.40374431e-01 2.47329064e-02
      4.80401739e-02 0. 0. 0. 1.45109236e-01 4.53565754e-02
      8.00375640e-02 9.66583192e-02 8.96722358e-03 1.61270559e-01
      1.31948362e-03 4.39818241e-02 2.21605655e-02 4.09284867e-02
      4.55396324e-02 2.88652740e-02 2.74579644e-01 4.01447445e-01
      4.01447445e-01 4.55551036e-02 1.36815041e-01 6.60821944e-02
      1.06265202e-01 1.12335887e-02 1.16762100e-02 8.47437382e-02
      4.69717942e-03 2.55689800e-01 4.87859128e-03 4.95116897e-02
      3.17133009e-03 7.78682251e-03 2.57774368e-02 2.41555516e-02
      3.12974453e-01 3.03024650e-01 4.01447445e-01 2.16564238e-01
      1.88910142e-01 9.63202585e-03 2.57774368e-02</_>
    <_>
      3.13788652e-01 3.13788652e-01 4.42236662e-02 9.75669082e-03
      1.18589150e-02 2.11902745e-02 2.55400799e-02 5.41361049e-02
      1.41118765e-01 3.13788652e-01 3.13788652e-01 1.54900283e-01
      9.04359575e-03 1.45216957e-02 4.18305509e-02 4.51384820e-02
      3.25034894e-02 1.19372994e-01 3.13788652e-01 3.13788652e-01
      1.20079227e-01 1.64825432e-02 9.67578497e-03 8.53967946e-03
      9.73405503e-03 1.94701850e-02 2.07659602e-01 3.13788652e-01
      3.13788652e-01 2.70745218e-01 3.80194820e-02 3.46407481e-02
      4.64708619e-02 3.56104113e-02 4.24275640e-03 4.23285961e-02
      3.47755581e-01 3.47755581e-01 8.70672762e-02 9.82079655e-04
      1.32064587e-02 3.91964130e-02 3.32826450e-02 2.60967799e-02
      1.32524759e-01 3.47755581e-01 3.47755581e-01 6.90757856e-02
      2.89036557e-02 5.64639196e-02 6.09615371e-02 3.31516303e-02
      4.51108031e-02 1.48142487e-01 2.03828022e-01 3.21156591e-01
      2.95562983e-01 3.39934193e-02 5.35497032e-02 1.98203236e-01
      5.01312688e-02 2.10384876e-02 6.85612932e-02 1.28059521e-01
      1.81948677e-01 6.32735789e-02 2.41358746e-02 1.04260787e-01
      2.93657899e-01 6.61894083e-02 4.05496508e-02 7.95223787e-02
      1.23503931e-01 9.52474922e-02 1.63433820e-01 2.07275718e-01
      1.27937511e-01 6.07487224e-02 1.15252852e-01 5.52420653e-02
      6.52960539e-02 6.21535033e-02 1.72042057e-01 2.39624128e-01
      6.00482114e-02 1.22772433e-01 1.29233852e-01 2.09933311e-01
      1.51598245e-01 6.77136332e-02 1.42581940e-01 1.20020166e-01
      1.14993982e-01 2.38931999e-01 2.14460880e-01 2.54664809e-01
      2.46843755e-01 1.48516789e-01 8.67609084e-02 2.10623190e-01
      2.31521100e-01 2.46387869e-01 1.15096837e-01 2.01733500e-01
      1.67852387e-01 1.81692764e-01 2.10908636e-01 2.00071588e-01
      4.16758433e-02 4.44177203e-02 1.55837163e-01 1.19836770e-01
      9.88619253e-02 8.72924626e-02 2.93601692e-01 2.95192093e-01
      1.55586347e-01 6.65904433e-02 2.92763188e-02 6.86602946e-03
      3.99022140e-02 1.65740266e-01 2.29222104e-01 2.95192093e-01
      2.85989404e-01 9.12227407e-02 2.07328727e-03 5.70227019e-02
      1.48063511e-01 1.92565024e-01 1.82114348e-01 2.41534039e-01
      2.37871259e-01 1.20424777e-01 2.13837977e-02 2.89697573e-02
      4.21221927e-02 3.33684236e-02 1.47142619e-01 1.81603625e-01
      2.95192093e-01 2.95192093e-01 1.31454557e-01 1.84086729e-02
      3.16544116e-01 8.99343342e-02 4.40819189e-02 2.21737381e-02
      7.92608187e-02 9.00501236e-02 3.87221947e-02 1.05957739e-01
      2.94654906e-01 3.16544116e-01 2.65496939e-01 1.87936455e-01
      6.46611676e-02 9.77328569e-02 1.16350502e-01 6.83213323e-02
      1.11887321e-01 2.31292307e-01 3.16544116e-01 1.43014491e-01
      6.20642789e-02 3.10218651e-02 9.95081663e-02 9.67988595e-02
      2.95122433e-02 3.08716893e-02 1.59277171e-01 3.16544116e-01
      3.16544116e-01 1.95076630e-01 5.11193611e-02 7.18794912e-02
      1.08928189e-01 2.29322873e-02 1.91709679e-02 1.93096146e-01
      3.02488226e-02 1.74942181e-01 1.34675339e-01 7.75498673e-02
      4.88854796e-02 7.25893397e-03 1.82809439e-02 1.17710214e-02
      1.78489853e-02 3.82689387e-02 1.79083273e-01 4.00989920e-01
      2.52860546e-01 6.12528697e-02 4.21939529e-02 8.66207704e-02
      1.53490128e-02 3.56463268e-02 7.24481866e-02 3.32228780e-01
      4.00989920e-01 2.05628723e-01 4.53420207e-02 6.69600144e-02
      2.95668319e-02 4.72598197e-03 1.42302578e-02 3.25509310e-02
      2.80588061e-01 4.00989920e-01 3.05790067e-01 5.58213517e-02
      2.22448241e-02 4.68051247e-03 1.15724094e-03 1.47529952e-02
      1.17718130e-01 2.37215623e-01 3.63102615e-01 1.94192544e-01
      8.20007995e-02 1.70070883e-02 2.69401679e-03 4.08581272e-03
      2.03740224e-02 1.42282248e-01 2.23328799e-01 3.75088096e-01
      2.47677535e-01 5.55075668e-02 6.05634786e-02 1.92696080e-02
      3.50620300e-02 2.72089876e-02 1.18940532e-01 1.75344527e-01
      2.57672906e-01 1.66650161e-01 6.83266222e-02 3.27519584e-03
      3.51326237e-03 2.08575302e-03 1.98634975e-02 1.84744149e-01
      2.27921590e-01 3.75088096e-01 3.05210084e-01 3.01506687e-02
      2.10052673e-02 3.70138064e-02 3.13436352e-02 9.77678690e-03
      3.99968214e-02 5.62925041e-02 3.32277745e-01 2.70064235e-01
      1.66165069e-01 9.60137770e-02 3.04378346e-02 1.30048506e-02
      2.95248684e-02 6.89403042e-02 3.27676862e-01 3.13442707e-01
      1.56396881e-01 1.93058670e-01 9.44455713e-02 2.85340529e-02
      1.22465556e-02 5.26265763e-02 2.82836128e-02 6.63332120e-02
      2.88813621e-01 2.36943945e-01 1.70907021e-01 9.80605111e-02
      2.30186824e-02 3.83542292e-02 9.30967927e-02 6.57898039e-02
      2.98469961e-01 3.32277745e-01 2.69867569e-01 9.77122709e-02
      4.98642847e-02 7.00089987e-03 1.39591447e-03 4.50706705e-02
      1.24365047e-01 2.89935052e-01 2.30223551e-01 1.91154540e-01
      3.19405422e-02 2.24514324e-02 7.18488405e-03 3.90163958e-02
      8.00024047e-02 1.41435549e-01 2.73878098e-01 1.53777003e-01
      1.15553424e-01 3.95903513e-02 5.97585700e-02 6.49020225e-02
      1.08479522e-01 1.03931479e-01 1.39926508e-01 2.89935052e-01
      2.89935052e-01 1.31013080e-01 4.34341468e-02 1.28802005e-02
      2.12350655e-02 6.07168525e-02 1.40561998e-01 1.18293159e-01
      2.79537827e-01 2.89935052e-01 1.34675160e-01 1.01872921e-01
      2.46280938e-01 1.73150256e-01 2.76770592e-01 1.78417832e-01
      7.22763166e-02 7.60988519e-02 4.70422544e-02 7.63048753e-02
      2.99491081e-02 4.43166010e-02 1.31505877e-01 1.58900544e-01
      1.51745364e-01 2.07862243e-01 2.31128812e-01 2.19248906e-01
      6.68886080e-02 1.56498194e-01 1.92264855e-01 2.78627604e-01
      1.04975984e-01 9.42867026e-02 9.80990157e-02 9.28381234e-02
      5.62850684e-02 1.40521854e-01 1.27606645e-01 3.68326902e-02
      2.15978727e-01 2.78627604e-01 2.38709062e-01 2.30912790e-01
      2.78627604e-01 2.28404224e-01 7.20992386e-02 5.41344024e-02
      4.19452153e-02 1.15003988e-01 2.78627604e-01 2.78627604e-01
      1.33461937e-01 6.35027289e-02 1.07423529e-01 7.83655494e-02
      6.94102123e-02 1.35852978e-01 1.90658197e-01 1.08861342e-01
      6.54558763e-02 1.99301451e-01 2.14847967e-01 9.70424414e-02
      3.81579399e-02 1.54858828e-02 2.23974679e-02 1.35147283e-02
      2.33192928e-02 2.73306128e-02 4.10806745e-01 2.05272362e-01
      4.33653593e-02 5.26740178e-02 4.05576900e-02 3.63170467e-02
      3.05449795e-02 8.37953240e-02 4.10806745e-01 4.10806745e-01
      4.10806745e-01 0. 1.26096420e-03 9.70068946e-03 7.97731988e-03
      4.44389787e-03 3.61052640e-02 2.17716128e-01 1.72334135e-01
      4.32820357e-02 2.16308180e-02 8.64922069e-03 1.05669377e-02
      9.27200764e-02 3.62312496e-01 2.76507199e-01 9.85982344e-02
      5.71117401e-02 2.26044562e-02 1.48410546e-02 2.76202010e-03
      3.79954502e-02 3.08025964e-02 3.62312496e-01 3.62312496e-01
      1.12967692e-01 2.93644726e-01 3.12302485e-02 6.34130032e-04 0.
      4.82943887e-03 1.20396893e-02 1.10022336e-01 8.57196674e-02
      2.04963967e-01 1.54933453e-01 8.45424682e-02 1.58171207e-02 0.
      1.39447134e-02 1.02443108e-02 3.62312496e-01 2.94264466e-01
      2.40863755e-01 9.47588906e-02 8.64472538e-02 1.72687590e-01
      1.88012868e-01 8.13605040e-02 2.49534398e-02 1.69297587e-02
      5.69327585e-02 5.36580682e-02 1.28333330e-01 1.74936458e-01
      3.80668610e-01 3.80668610e-01 1.04232416e-01 2.57270690e-02
      3.49554187e-03 3.91228832e-02 1.89864952e-02 9.82806087e-02
      4.69768643e-02 2.77058911e-02 1.64401338e-01 1.26563013e-01
      1.66923642e-01 1.31271660e-01 1.55585587e-01 8.34520683e-02
      7.40969852e-02 1.26261204e-01 2.70770907e-01 3.80668610e-01
      2.46404588e-01 1.41926169e-01 1.80069193e-01 2.43806258e-01
      7.92312920e-02 3.60815749e-02 1.10160567e-01 2.35705107e-01
      9.93357301e-02 1.72561053e-02 3.02412268e-02 3.70749226e-03
      9.13157035e-03 1.27105368e-02 2.84443703e-02 1.82018310e-01
      3.99255037e-01 3.32960725e-01 1.94226518e-01 1.87468268e-02
      4.90526855e-02 2.79672928e-02 1.42326653e-02 5.86156510e-02
      1.94375083e-01 3.99255037e-01 1.65806085e-01 1.73073336e-02
      1.89035870e-02 1.08303055e-02 2.08233092e-02 1.59566607e-02
      7.91871771e-02 2.83674210e-01 3.99255037e-01 2.82851070e-01
      6.62876889e-02 2.56609637e-02 3.94674875e-02 7.41336271e-02
      4.66053337e-02 1.34740293e-01 1.54698074e-01 2.99107403e-01
      2.49981344e-01 2.99107403e-01 1.15083633e-02 5.01052402e-02
      1.14578672e-03 4.64770310e-02 7.12154582e-02 2.32519627e-01
      2.99107403e-01 1.91018909e-01 1.47434324e-01 3.96047793e-02
      1.09163426e-01 8.32789019e-03 3.77308875e-02 1.12188235e-01
      1.30470440e-01 2.99107403e-01 2.99107403e-01 1.72840834e-01
      3.09950560e-02 4.14702594e-02 1.57247968e-02 4.90686968e-02
      6.56190962e-02 2.14187324e-01 2.99107403e-01 1.87017143e-01
      4.30456996e-02 1.30237266e-01 2.04895675e-01 5.73267415e-02
      6.66261092e-02 1.30773202e-01 3.51255029e-01 2.04730868e-01
      1.60449132e-01 7.92169049e-02 3.76068167e-02 8.33475124e-03
      7.29017183e-02 6.99963644e-02 1.64144948e-01 3.51255029e-01
      1.83562264e-01 1.38296355e-02 4.35458124e-02 6.36407584e-02
      1.06333233e-02 1.27412573e-01 1.75472692e-01 9.10626724e-02
      2.17149839e-01 1.64513096e-01 1.41800299e-01 7.89397582e-02
      4.70502414e-02 4.11834642e-02 7.29806572e-02 1.73938289e-01
      3.51255029e-01 3.51255029e-01 2.08093703e-01 4.71765026e-02
      1.58433784e-02 1.26216561e-02 7.90783111e-03 1.05020650e-01
      2.84519732e-01 2.94160634e-01 2.49790132e-01 5.41554019e-02
      5.11296391e-02 5.32268248e-02 1.38888136e-01 1.08769335e-01
      8.03437456e-02 1.95292369e-01 2.94160634e-01 1.13470145e-01
      6.22564629e-02 1.24204248e-01 1.48255065e-01 2.82067239e-01
      1.46796346e-01 3.08051929e-02 1.97165936e-01 2.27225438e-01
      2.94160634e-01 2.54508823e-01 8.27137083e-02 1.61764566e-02
      1.00242637e-01 4.83964235e-02 1.08133247e-02 6.92856088e-02
      1.52396455e-01 1.61108449e-01 6.91409633e-02 9.37226191e-02
      8.06084424e-02 2.94160634e-01 2.94160634e-01 1.69161130e-02
      1.11711405e-01 1.43329427e-01 6.34049401e-02 1.75302383e-02
      2.89587514e-03 2.29658317e-02 2.22194083e-02 9.09046754e-02
      3.28862369e-01 3.28862369e-01 2.76301712e-01 3.10687363e-01
      1.24675713e-01 0. 2.28843838e-02 9.70859639e-03 7.26336464e-02
      2.77115464e-01 3.28862369e-01 6.83973357e-02 4.02296521e-02
      5.36059737e-02 1.92279611e-02 9.77740362e-02 4.09825556e-02
      1.75214171e-01 2.12189391e-01 1.86512589e-01 1.98818058e-01
      1.92824066e-01 1.14203475e-01 2.01411024e-02 8.81290361e-02 0.
      9.32814702e-02 1.44678444e-01 3.28862369e-01 5.43501787e-02
      5.85844181e-02 5.96061163e-02 6.46384433e-02 8.07389617e-02
      1.66166537e-02 1.04083844e-01 1.29332110e-01 5.54230735e-02
      1.32835209e-02 2.91336440e-02 3.49769928e-02 7.71753043e-02
      2.40057379e-01 1.77515671e-01 3.13335299e-01 3.08303446e-01
      8.24783891e-02 1.75135076e-01 2.50249773e-01 8.45586061e-02
      1.38656929e-01 2.42001146e-01 2.20378011e-01 1.29292935e-01
      1.96013957e-01 1.48575097e-01 8.34669173e-02 1.10836141e-01
      9.54448134e-02 1.60319760e-01 2.00979769e-01 9.60412994e-02
      3.33251715e-01 3.33251715e-01 1.33936659e-01 2.42302239e-01
      5.21243215e-02 1.20920882e-01 4.09370847e-02 1.12442605e-01
      5.08542322e-02 1.57525375e-01 2.21500099e-01 2.89785773e-01
      2.89785773e-01 2.43078560e-01 1.51879594e-01 5.35005070e-02
      8.09593350e-02 9.89839900e-03 1.94153741e-01 1.75208583e-01
      2.89785773e-01 9.11271647e-02 1.10445423e-02 6.19935896e-03
      1.43106608e-03 4.95946454e-03 7.80670121e-02 2.44137347e-01
      2.52637595e-01 2.26107478e-01 2.30141819e-01 8.59074816e-02
      9.44508985e-03 2.48668250e-02 3.40416692e-02 2.99518704e-02
      2.18518987e-01 1.85225964e-01 2.89785773e-01 6.92052469e-02
      1.42994687e-01 2.03842387e-01 1.41864732e-01 3.54307033e-02
      7.92352110e-03 1.24131027e-03 3.59451063e-02 5.05634844e-02
      8.46596956e-02 1.35312989e-01 8.85517299e-02 3.94695625e-02
      4.90775667e-02 1.80133730e-01 1.86231077e-01 1.17883042e-01
      1.83086634e-01 1.56627432e-01 1.62594318e-01 2.76139259e-01
      2.76139259e-01 1.88016206e-01 3.02042812e-02 3.56299221e-03
      3.03092729e-02 1.22215919e-01 2.53247738e-01 1.76580489e-01
      2.01952606e-01 1.69380724e-01 2.76139259e-01 2.76139259e-01
      2.76139259e-01 1.67090431e-01 2.76139259e-01 9.49301291e-04
      4.24200948e-03 2.68594716e-02 5.75398691e-02 2.42081702e-01
      3.39577585e-01 2.02642232e-01 5.09228297e-02 7.59683363e-03
      6.31014556e-02 3.13612446e-02 8.10536742e-02 1.33935317e-01
      2.68150032e-01 2.45129630e-01 1.40465677e-01 3.08445022e-02
      2.49362793e-02 0. 2.13262662e-02 3.75741906e-02 5.86155429e-02
      1.86474130e-01 3.39577585e-01 3.39577585e-01 1.24522023e-01
      2.83846296e-02 7.91467726e-02 3.53727862e-02 5.10814134e-03
      1.45104527e-02 2.35454947e-01 3.39577585e-01 3.39577585e-01
      8.67535025e-02 6.16342351e-02 8.58829841e-02 4.01902087e-02
      3.90636660e-02 1.12873882e-01 1.18256621e-01 6.93810135e-02
      8.77787992e-02 8.81177559e-02 4.10046615e-02 8.07210952e-02
      8.95414799e-02 7.84660205e-02 2.73976345e-02 3.15991230e-02
      1.24208983e-02 9.57270414e-02 1.49986282e-01 1.01278722e-01
      2.88125068e-01 2.00343817e-01 2.55677074e-01 1.29858583e-01
      2.88125068e-01 2.88125068e-01 1.90665215e-01 2.28612572e-02
      2.34328493e-01 2.35253066e-01 2.61380732e-01 2.63448447e-01
      5.66579774e-02 2.30711758e-01 2.88125068e-01 1.85296848e-01
      8.45251381e-02 1.90249220e-01 2.48430837e-02 4.74919491e-02
      5.26542030e-02 5.47312945e-02 1.02687970e-01 8.35694373e-02
      2.14836568e-01 1.24863483e-01 4.61505614e-02 1.55715570e-01
      2.84172505e-01 1.31245986e-01 1.12432517e-01 1.26184464e-01
      1.16141230e-01 6.23982549e-02 3.62411849e-02 1.27544746e-01
      3.41278091e-02 4.01131213e-02 1.80069730e-02 6.67181984e-02
      2.41725698e-01 2.23483354e-01 2.84172505e-01 2.84172505e-01
      5.62484972e-02 1.40065521e-01 2.65874773e-01 1.07200503e-01
      1.97274759e-01 2.84172505e-01 2.84172505e-01 2.24470153e-01
      2.84172505e-01 8.60129744e-02 1.05959205e-02 0. 1.55808153e-02
      1.35862166e-02 6.60902560e-02 3.37925524e-01 2.70028979e-01
      5.93890399e-02 1.44006424e-02 1.03757670e-02 2.08653510e-03
      2.31816787e-02 2.41251513e-02 7.24809617e-02 3.37925524e-01
      3.37925524e-01 7.26715848e-02 2.38376297e-02 1.52477603e-02 0.
      3.67656146e-04 1.59673369e-03 5.25364326e-03 1.75842136e-01
      3.37925524e-01 3.37925524e-01 7.35692158e-02 3.35361212e-02
      8.12031887e-03 0. 2.31097247e-02 1.63787641e-02 2.38530323e-01
      3.37925524e-01 3.37925524e-01 8.88300985e-02 1.42062223e-03
      1.16663706e-03 4.89637395e-03 1.17990887e-02 5.48323467e-02
      2.64160305e-01 2.58529931e-01 9.35970545e-02 2.42118575e-02
      7.80682219e-03 0. 5.27649606e-03 4.39140350e-02 3.02423358e-01
      2.51163214e-01 8.55719596e-02 2.41404381e-02 4.68462966e-02
      1.97705291e-02 1.61417630e-02 1.45036448e-02 2.31682360e-02
      6.15170039e-02 1.19402178e-01 3.75053138e-01 3.75053138e-01
      1.90305963e-01 5.14968783e-02 2.63995808e-02 9.66909528e-03
      1.79296024e-02 2.18056276e-01 2.36981496e-01 2.21299857e-01
      3.67788970e-01 2.27495372e-01 1.76316530e-01 1.18663900e-01
      5.39862216e-02 1.10862523e-01 2.56676048e-01 2.39432365e-01
      1.84530765e-02 7.10985810e-02 1.40102997e-01 2.01931715e-01
      2.67079562e-01 2.67079562e-01 1.98535874e-01 1.56086117e-01
      4.42487262e-02 2.35575321e-03 8.29210132e-02 8.87120292e-02
      1.54257014e-01 2.67079562e-01 1.06933996e-01 9.10695344e-02
      9.93514508e-02 2.28752568e-01 8.18436444e-02 1.71380937e-01
      2.52145559e-01 1.57035962e-01 2.67079562e-01 2.67079562e-01
      1.03475712e-01 3.65887098e-02 8.12516138e-02 6.70437440e-02
      1.57207936e-01 1.81420267e-01 3.83627489e-02 9.06492770e-02
      2.46888697e-01 2.03756899e-01 1.40500933e-01 5.64719290e-02
      3.46217342e-02 1.79402996e-02 2.49614138e-02 5.99737242e-02
      1.78884983e-01 1.59275204e-01 1.88171610e-01 2.42128074e-01
      1.71312183e-01 1.03304721e-01 2.28224024e-01 1.37261108e-01
      9.60935205e-02 1.17985792e-01 8.27909932e-02 1.54653460e-01
      2.49380112e-01 1.44124031e-01 5.75409941e-02 1.05172619e-01
      1.22713029e-01 1.22687303e-01 2.69462466e-01 2.69462466e-01
      2.69462466e-01 2.69462466e-01 2.69462466e-01 7.62290135e-02
      1.50961161e-01 1.45278469e-01 2.12801918e-01 2.65413016e-01
      1.82466611e-01 1.54215112e-01 2.65413016e-01 2.56108642e-01
      2.65413016e-01 5.85103314e-03 3.97946015e-02 2.65413016e-01
      2.65413016e-01 2.26720944e-01 2.65413016e-01 2.08258361e-01
      1.60110593e-01 1.20021962e-01 8.22305679e-03 2.60550696e-02
      1.99875847e-01 1.81942165e-01 1.34515524e-01 8.68428051e-02
      1.60472035e-01 9.47639346e-02 1.51119098e-01 3.14985402e-03
      5.68436794e-02 2.27591187e-01 1.97041020e-01 8.04542601e-02
      6.94010556e-02 1.82775501e-02 2.88919117e-02 1.60466563e-02
      4.58216527e-03 8.18117931e-02 3.36080343e-01 3.36080343e-01
      3.36080343e-01 1.91018775e-01 3.15353662e-01 8.90176371e-02
      1.54748559e-01 6.65797219e-02 7.40180463e-02 2.46999994e-01
      1.82948858e-01 9.71281305e-02 1.45606667e-01 2.29907334e-01
      4.30681743e-02 1.38999641e-01 5.35585955e-02 7.32954592e-02
      3.36080343e-01 2.74126023e-01 4.44469824e-02 7.29758367e-02
      4.29690629e-02 1.13342097e-02 4.52721342e-02 9.75685120e-02
      8.18559602e-02 8.18806887e-02 1.18137591e-01 2.38168165e-02
      5.39791808e-02 6.05313927e-02 7.60623533e-03 1.03907786e-01
      1.24828465e-01 5.29298931e-02 9.15983543e-02 2.84620747e-03
      5.14328340e-03 4.75661270e-03 2.99175978e-02 1.47540998e-02
      2.57119060e-01 5.03364265e-01 1.17884822e-01 1.37661606e-01
      5.47460886e-03 4.09602886e-03 0. 3.30783725e-02 1.39978179e-03
      3.33679527e-01 5.03364265e-01 2.95825243e-01 5.21913990e-02
      1.76062658e-02 2.91845333e-02 7.13491952e-03 5.58672883e-02
      1.05441874e-02 2.14672852e-02 4.75305282e-02 6.86935633e-02
      1.23032175e-01 2.27678474e-02 2.11332571e-02 0. 5.38679957e-02
      4.29124897e-03 3.73203233e-02 3.39849025e-01 1.70840159e-01
      9.24999788e-02 7.78406672e-03 2.60531064e-03 0. 5.12002152e-04
      2.32783635e-03 7.72471204e-02 3.64630848e-01 3.64630848e-01
      2.56393939e-01 8.19821730e-02 9.17227066e-04 4.73349821e-03
      1.86235029e-02 1.71166416e-02 1.00089617e-01 2.50636250e-01
      3.64630848e-01 1.20182373e-01 4.06554854e-03 4.15499182e-03
      9.76029225e-03 5.79243666e-03 4.94495220e-03 6.94039976e-03
      1.77824423e-01 3.64630848e-01 3.35487366e-01 6.10850267e-02
      4.95807733e-03 2.44007283e-03 5.67043480e-03 8.59653950e-03
      6.04227930e-03 9.09232423e-02 3.64630848e-01 3.48736227e-01
      3.48736227e-01 3.48736227e-01 9.73552614e-02 5.43625988e-02
      1.33638196e-02 3.76382358e-02 1.99970547e-02 1.13546349e-01
      1.76429704e-01 3.48736227e-01 3.48736227e-01 1.47058159e-01
      1.06913947e-01 5.77213280e-02 1.63670406e-02 2.94260737e-02
      1.03422016e-01 2.96095490e-01 3.48736227e-01 2.54993606e-02
      5.41916909e-03 1.62828676e-02 2.88349693e-03 1.58376712e-02
      1.99468825e-02 9.28047597e-02 9.63816270e-02 2.12235793e-01
      5.90383857e-02 2.07590200e-02 2.14723330e-02 2.14668410e-03
      1.22897774e-02 1.80275552e-02 5.53941093e-02 2.51992553e-01
      1.35881037e-01 5.30460365e-02 1.88302640e-02 9.96471196e-02
      5.38988411e-02 7.77921453e-02 4.19709623e-01 4.35852528e-01
      3.70472282e-01 2.20545322e-01 1.41525909e-01 6.01399615e-02
      2.11012974e-01 8.43585581e-02 2.84002814e-02 1.38315424e-01
      4.35852528e-01 3.69284041e-02 2.13023331e-02 3.83221619e-02
      1.88919883e-02 8.48156735e-02 1.66958421e-02 5.30552119e-02
      5.81090897e-02 4.26821448e-02 6.38041720e-02 6.94301352e-02
      7.80396014e-02 4.74336147e-02 7.59728849e-02 1.27250711e-02
      3.43398675e-02 8.41516927e-02 6.21674769e-02 2.96127111e-01
      6.64109737e-02 1.57512188e-01 6.22799397e-02 1.40049711e-01
      9.21567082e-02 9.07328650e-02 8.73132721e-02 2.94969380e-01
      2.23803610e-01 2.11290494e-01 1.27399519e-01 1.66797966e-01
      1.51405841e-01 1.41753387e-02 3.86305302e-02 2.79426873e-02
      2.54683942e-01 1.63833514e-01 3.51140425e-02 1.51384592e-01
      1.03105418e-01 3.16863149e-01 4.50541824e-02 3.27449962e-02
      2.26133764e-02 2.36134753e-01 2.49507800e-01 2.95659930e-01
      9.61841270e-02 1.22447103e-01 2.30835244e-01 4.25987467e-02
      4.30704020e-02 1.95074156e-02 2.40548342e-01 1.58014581e-01
      6.12294450e-02 1.28185123e-01 3.70665863e-02 2.19046772e-01
      1.78156234e-02 5.94412945e-02 1.59180127e-02 1.52767122e-01
      1.44896433e-01 5.37162088e-02 1.29131079e-01 3.87457572e-02
      3.08954626e-01 7.12624788e-02 2.08792746e-01 2.11902767e-01
      2.17059433e-01 1.34357974e-01 1.45369843e-01 2.07739666e-01
      1.01272523e-01 3.16594392e-01 1.18770804e-02 4.99092191e-02
      1.37553643e-02 1.14303350e-01 1.39501914e-01 1.03216723e-01
      3.16015065e-01 9.85295549e-02 4.09715503e-01 9.85937640e-02
      1.98834866e-01 7.29516819e-02 1.41323641e-01</_>
    <_>
      0. 2.60749506e-03 7.80261960e-03 0. 0. 0. 0. 0. 0. 4.89139110e-02
      1.24834895e-01 2.47510970e-01 3.28583308e-02 9.71167721e-03 0. 0.
      0. 3.13634016e-02 4.47296631e-03 1.48488209e-01 4.20305580e-01
      1.43473325e-02 0. 0. 0. 0. 4.47296631e-03 1.17333129e-01
      5.69829881e-01 5.69829881e-01 1.73856705e-01 9.65999514e-02 0. 0.
      0. 1.05632797e-01 1.77218720e-01 3.02571625e-01 2.28423879e-01
      1.05379391e-02 2.43792217e-02 9.00273328e-04 7.64446193e-03
      1.70158520e-02 6.89917356e-02 3.02571625e-01 3.02571625e-01
      1.70269832e-01 7.71651603e-03 3.64453644e-02 1.35041005e-03
      2.24733017e-02 9.04834718e-02 2.14399412e-01 2.59184420e-01
      3.02571625e-01 1.98819026e-01 7.32091814e-02 8.42526481e-02
      6.22591842e-03 4.89717498e-02 4.76930402e-02 1.10747375e-01
      3.02571625e-01 3.02571625e-01 8.13003853e-02 3.50459665e-02
      4.73507270e-02 3.82817797e-02 7.81626850e-02 2.01335430e-01
      2.80907333e-01 3.03263664e-01 1.89287886e-01 4.33508642e-02
      5.02239075e-03 3.21090817e-02 3.60985175e-02 9.63080451e-02
      8.96210819e-02 3.03263664e-01 3.03263664e-01 1.05187751e-01
      9.35982838e-02 1.31017510e-02 5.82135990e-02 7.73125365e-02
      2.62813270e-01 3.03263664e-01 3.03263664e-01 2.72824824e-01
      2.61261493e-01 1.27817467e-01 4.97851409e-02 3.43918465e-02
      1.44829946e-02 3.71185876e-02 2.17539333e-02 7.62051120e-02
      2.59773076e-01 1.28180131e-01 1.73639759e-01 1.41695693e-01
      1.06926352e-01 2.87776198e-02 1.79705128e-01 7.14067966e-02
      1.64206401e-01 1.80834576e-01 4.58662584e-02 7.72125348e-02 0.
      5.78619093e-02 5.51160574e-02 1.24585591e-01 2.68713236e-01
      2.23755747e-01 2.47198641e-01 1.60702243e-02 4.68854010e-02 0.
      2.32606053e-01 6.20389469e-02 2.68713236e-01 2.62149245e-01
      2.68713236e-01 1.86895758e-01 1.47439420e-01 1.26465306e-01
      3.36442702e-02 8.55806097e-02 8.77026543e-02 1.53033003e-01
      2.68713236e-01 1.03577062e-01 1.60494894e-01 5.14002480e-02
      3.62986550e-02 1.29143940e-02 1.83522508e-01 8.40350017e-02
      2.68713236e-01 2.68713236e-01 2.59823978e-01 2.25673884e-01 0. 0.
      0. 9.96251684e-03 2.05790289e-04 2.72542447e-01 1.82763636e-01
      2.72542447e-01 2.24800885e-01 1.86821783e-03 0. 0. 2.71065487e-03
      0. 2.72542447e-01 2.57599831e-01 2.72542447e-01 2.34169647e-01 0.
      0. 0. 1.19846635e-01 5.96161233e-03 2.49383837e-01 1.10781468e-01
      2.38819599e-01 2.72542447e-01 0. 0. 0. 1.56931266e-01 0.
      2.72542447e-01 2.24999800e-01 2.72542447e-01 1.26459673e-01
      9.83308908e-03 0. 0. 1.83353089e-02 0. 1.45698443e-01
      1.86712906e-01 2.56901532e-01 6.69197366e-02 2.56112125e-02 0. 0.
      2.55650431e-02 1.08594075e-02 9.39737335e-02 2.14229196e-01
      1.57096624e-01 3.10749024e-01 4.26853588e-03 0. 0. 0. 0.
      3.10749024e-01 3.10749024e-01 3.10749024e-01 3.10749024e-01
      1.70741398e-02 0. 0. 1.37793208e-02 7.23960390e-03 3.10749024e-01
      3.10749024e-01 3.10749024e-01 1.06827982e-01 1.34169653e-01
      3.10874909e-01 1.00040600e-01 9.05070156e-02 0. 2.33772397e-02
      7.81226298e-03 2.41306480e-02 1.68404952e-01 8.78156722e-02
      1.79110408e-01 1.05506748e-01 1.39904082e-01 4.13693003e-02
      1.25386477e-01 6.50974512e-02 5.72872646e-02 2.12117091e-01
      2.02801108e-01 3.10874909e-01 1.96719840e-01 2.75628179e-01 0.
      5.35880588e-02 1.79081894e-02 8.70051682e-02 2.38108128e-01
      2.08831474e-01 3.10874909e-01 2.68137097e-01 3.10874909e-01
      1.70060545e-02 1.46911576e-01 6.43705353e-02 1.67136446e-01
      4.64263633e-02 1.28737852e-01 3.01908344e-01 2.47483719e-02
      2.09667519e-01 7.06625776e-03 2.89559122e-02 1.40370009e-02
      4.44002897e-02 9.91418734e-02 1.29475236e-01 3.01908344e-01
      4.77795675e-02 3.01908344e-01 3.33261564e-02 9.17070210e-02
      2.98619308e-02 9.58938673e-02 1.06296808e-01 2.54707456e-01
      3.01908344e-01 3.71870063e-02 2.86898643e-01 2.82650199e-02
      1.52876312e-02 1.96336973e-02 8.67030844e-02 1.74148932e-01
      1.63095877e-01 3.01908344e-01 7.23612234e-02 3.01908344e-01
      1.23413160e-01 2.65576810e-01 6.28584847e-02 1.20694689e-01
      2.70797789e-01 2.19121084e-01 2.34594703e-01 1.58927366e-01
      2.70797789e-01 1.07397037e-02 2.16774922e-02 5.06380107e-03
      1.74753830e-01 1.43213362e-01 1.27961636e-01 1.29937157e-01
      2.57151365e-01 2.70797789e-01 6.00979365e-02 5.75932115e-02
      7.81213567e-02 9.91048589e-02 2.70797789e-01 1.16272368e-01
      1.29948080e-01 1.30367711e-01 2.47571364e-01 6.70179874e-02
      5.28644323e-02 1.57088190e-02 2.07565829e-01 2.70797789e-01
      1.63561553e-01 8.84403735e-02 1.44093052e-01 1.53878674e-01
      1.73286155e-01 6.40903935e-02 1.09205388e-01 2.09870383e-01
      6.20993972e-02 1.07035138e-01 1.59656197e-01 1.01623543e-01
      2.81135678e-01 1.70258909e-01 1.30051911e-01 6.61851764e-02
      8.23246986e-02 2.81135678e-01 1.40842408e-01 6.46291077e-02
      4.28494848e-02 2.26997927e-01 5.95825277e-02 9.08347964e-02
      1.01153210e-01 2.81135678e-01 1.22629650e-01 1.03577167e-01
      8.96002352e-02 1.56555250e-01 2.10326463e-01 1.87836304e-01
      1.22948579e-01 2.64377613e-02 1.83072284e-01 2.81135678e-01
      7.04993904e-02 7.95688201e-03 6.97304383e-02 2.78769106e-01
      1.71234608e-01 1.71615735e-01 2.46714607e-01 2.81135678e-01
      5.55246137e-02 2.78331637e-02 4.92232852e-02 3.52271646e-02
      8.62080604e-02 8.83799344e-02 3.09524834e-01 3.13378543e-01
      3.50900367e-02 5.42884842e-02 1.37777105e-02 1.29433293e-02
      1.36878469e-03 5.68761863e-02 5.62214963e-02 3.01963568e-01
      3.13378543e-01 3.10397930e-02 5.31707592e-02 6.18649796e-02
      1.56820402e-01 6.72612116e-02 1.68181688e-01 2.38579348e-01
      2.79472858e-01 3.05693686e-01 7.74169862e-02 3.06015797e-02
      3.07749566e-02 1.08896129e-01 2.09479816e-02 1.09345317e-01
      2.20467746e-01 3.13378543e-01 3.13378543e-01 9.55435783e-02
      1.84580132e-01 3.40903457e-03 1.02010919e-02 0. 1.22592807e-01
      1.28542939e-02 1.16987437e-01 6.36883304e-02 1.84780270e-01
      2.93269902e-01 2.72722729e-03 8.16087238e-03 0. 1.79917634e-01 0.
      3.63044977e-01 2.28923962e-01 3.63044977e-01 1.19757697e-01
      1.49522536e-02 4.08492461e-02 0. 2.12366804e-01 5.14171608e-02
      1.08010918e-01 3.63044977e-01 1.93192691e-01 1.37005284e-01
      1.09089054e-02 3.26434858e-02 0. 2.13048756e-01 0. 2.85137892e-01
      2.24343210e-01 1.37472644e-01 1.80793852e-01 5.61282597e-02
      1.74339339e-01 0. 1.37379602e-01 0. 2.77883947e-01 8.96852612e-02
      1.62654340e-01 2.13025272e-01 6.65227920e-02 1.75798938e-01
      5.12307920e-02 2.24991977e-01 0. 2.92151392e-01 1.15786426e-01
      2.02355281e-01 1.36173651e-01 1.56452507e-01 2.92151392e-01 0.
      2.41778716e-01 0. 4.72961999e-02 9.46107879e-03 1.36173651e-01
      1.59180373e-01 1.66352332e-01 2.92151392e-01 8.51510167e-02
      2.92151392e-01 1.54236760e-02 2.47088760e-01 7.83431605e-02
      1.43175378e-01 2.26917535e-01 2.00387076e-01 3.20644468e-01
      3.20644468e-01 2.10142374e-01 5.00386730e-02 8.77496153e-02
      1.16467707e-01 7.05235451e-02 1.53599709e-01 1.32238016e-01
      8.66407081e-02 1.38194589e-02 7.48301623e-03 5.64642511e-02
      2.10012272e-01 3.20644468e-01 2.39433557e-01 1.86438650e-01
      1.90363228e-01 1.10070981e-01 2.64215022e-01 2.57002950e-01
      7.42077753e-02 4.12826091e-02 9.09389257e-02 6.36586621e-02
      1.11243434e-01 1.57710701e-01 2.82201190e-02 2.08728462e-02
      2.62348950e-02 1.05354913e-01 1.86391488e-01 1.92304179e-01
      9.92818624e-02 2.09981352e-01 3.02630514e-01 1.37436554e-01
      8.41144193e-03 1.54328309e-02 1.22056119e-02 6.60405122e-03
      1.46167148e-02 3.87050062e-02 2.82720715e-01 2.59767771e-01
      1.53869972e-01 1.66807754e-03 1.16117653e-02 1.47398664e-02
      3.96744721e-02 1.05158173e-01 1.66303217e-01 2.07589224e-01
      3.02630514e-01 3.02630514e-01 2.30401624e-02 2.26668585e-02
      2.38190312e-02 4.89763310e-03 3.88123328e-03 5.39182350e-02
      3.02630514e-01 2.91176170e-01 3.02630514e-01 4.31227610e-02
      1.72739953e-01 1.52985692e-01 8.91318247e-02 1.45728067e-01
      2.13086516e-01 2.35916942e-01 1.29817262e-01 8.34171697e-02
      3.92904431e-02 6.58423230e-02 7.37848356e-02 8.83255377e-02
      1.62839577e-01 3.38999450e-01 2.91232258e-01 1.81587189e-01
      1.53039187e-01 4.76111248e-02 1.35793999e-01 1.39218524e-01
      1.25126660e-01 9.89192426e-02 2.51418054e-01 2.99006939e-01
      8.54608044e-02 1.01487443e-01 1.53012509e-02 6.89041466e-02
      1.09910861e-01 2.13802844e-01 2.15261191e-01 1.44583404e-01
      3.38999450e-01 2.28135735e-01 1.51241049e-01 3.60724628e-02
      1.10130534e-01 9.07350145e-03 2.05389671e-02 5.22008538e-02
      2.07622871e-01 1.03687257e-01 1.93607733e-02 4.38173711e-02
      6.12599291e-02 4.27938290e-02 1.37548253e-01 3.09345394e-01
      2.64035374e-01 2.11031273e-01 1.43049836e-01 3.16301361e-02
      8.23488757e-02 1.08516507e-01 1.60018593e-01 1.71977639e-01
      2.49800116e-01 3.09345394e-01 3.08044642e-01 1.89517453e-01
      2.02502590e-02 1.68059999e-03 2.09133439e-02 1.35579975e-02
      4.27452736e-02 8.29240456e-02 1.63437560e-01 3.09345394e-01
      2.77342170e-01 1.10214837e-01 6.72466233e-02 6.36496767e-02
      6.68568537e-02 5.11815436e-02 1.02423050e-01 1.49170652e-01
      3.09345394e-01 9.37165692e-02 4.70669046e-02 1.56194866e-02
      1.74302720e-02 8.41880813e-02 3.77698056e-02 1.00081570e-01
      3.19376409e-01 1.51005059e-01 3.19376409e-01 2.10261598e-01
      4.39259820e-02 4.93577868e-02 2.85934359e-01 1.01992935e-01
      1.03464164e-01 3.02536786e-01 3.19376409e-01 1.25816941e-01
      3.63365225e-02 3.81989740e-02 2.94833966e-02 2.79286951e-01
      1.37615353e-01 5.27014546e-02 7.07228556e-02 1.16521284e-01
      1.33573875e-01 7.34426528e-02 1.55756567e-02 3.29919308e-02
      3.19376409e-01 3.19376409e-01 1.42884076e-01 3.63029465e-02
      8.29374269e-02 6.12194724e-02 2.57215295e-02 7.69684911e-02 0.
      2.62823433e-01 0. 8.68879706e-02 2.90364362e-02 6.12194724e-02
      2.16581468e-02 5.54991290e-02 1.96810588e-01 0. 4.72763598e-01
      5.17631434e-02 3.78282189e-01 1.30228236e-01 2.16581468e-02
      5.39641008e-02 3.25536951e-02 9.74130332e-02 0. 3.37848425e-01 0.
      1.18189184e-02 3.94967478e-03 5.39641008e-02 7.51524195e-02
      1.02749087e-01 3.08817029e-01 6.66420255e-03 4.72763598e-01
      2.85498938e-03 5.36320433e-02 2.01966558e-02 7.51524195e-02
      3.49721983e-02 2.43521947e-02 1.78436674e-02 6.33067160e-04
      1.60585701e-01 5.98114505e-02 1.00405358e-01 4.86459211e-02
      3.72931659e-02 7.76882693e-02 2.07527831e-01 3.57325047e-01
      2.99658448e-01 1.39600366e-01 2.67635416e-02 3.05059496e-02
      2.31603086e-02 4.53611352e-02 2.00941600e-02 9.05211344e-02
      1.19384922e-01 7.82847032e-02 2.84412622e-01 4.23593521e-02
      4.69155535e-02 1.60283148e-02 1.91213768e-02 2.19590496e-02
      3.49365681e-01 3.57325047e-01 3.57325047e-01 3.57325047e-01
      9.63691995e-03 1.90422937e-01 6.29647151e-02 1.98648069e-02
      2.31621414e-01 2.27229178e-01 3.10243279e-01 2.10388228e-02
      2.54526556e-01 4.19252756e-04 2.14789994e-04 6.45515393e-04
      1.24071367e-01 1.28651351e-01 6.43677637e-02 3.46351832e-01
      2.60261279e-02 3.46351832e-01 5.37977926e-02 6.90279948e-03
      1.08294725e-01 2.84609050e-01 4.65529077e-02 1.94024090e-02
      1.51553616e-01 1.38734654e-02 1.84498474e-01 0. 0. 0.
      4.65529077e-02 1.09856524e-01 5.04269972e-02 3.46351832e-01
      1.53744131e-01 3.46351832e-01 1.98640991e-02 1.15833674e-02
      2.29510795e-02 1.27626717e-01 1.83766067e-01 2.23929793e-01
      1.00345314e-01 2.13185581e-03 6.05022199e-02 2.31432337e-02
      1.78564079e-02 3.09437346e-02 4.86553907e-02 2.90966183e-01
      2.33197883e-01 8.51075947e-02 0. 3.71363945e-02 0. 4.47578616e-02
      8.74987990e-02 1.20064817e-01 1.82959318e-01 2.90966183e-01
      2.90966183e-01 3.55305634e-02 1.51627526e-01 7.75448047e-03
      4.39393185e-02 2.31876411e-02 7.28691518e-02 2.90966183e-01
      2.00217858e-01 2.90966183e-01 0. 2.90966183e-01 0. 2.90966183e-01
      1.86668634e-01 2.73967862e-01 8.57779980e-02 8.03127419e-03
      1.62694305e-02 0. 8.22478086e-02 4.69186623e-03 2.02853009e-02
      3.06486666e-01 3.06486666e-01 1.08890735e-01 2.52936613e-02
      4.25646268e-02 3.15469084e-03 2.08015218e-02 3.72212157e-02
      8.16402361e-02 3.06486666e-01 3.06486666e-01 3.06000262e-01
      7.22483620e-02 1.62427410e-01 2.33573988e-02 2.78587013e-01
      1.87674575e-02 1.52206510e-01 2.30725378e-01 3.06486666e-01
      8.76284838e-02 1.29426241e-01 1.37198746e-01 3.56512778e-02
      1.50915593e-01 1.48884848e-01 9.01873708e-02 2.81033188e-01
      1.81250051e-01 3.49325687e-02 6.47133440e-02 7.91578442e-02
      4.74311374e-02 4.14390087e-01 6.32238016e-02 2.69003008e-02
      2.81853657e-02 3.64820957e-02 2.57088076e-02 2.11819001e-02
      2.22404022e-02 4.08561267e-02 4.14390087e-01 1.75650105e-01
      9.25221220e-02 2.09271293e-02 1.97475329e-02 3.27601135e-02
      3.58101949e-02 8.57008100e-02 2.73485631e-02 4.14390087e-01
      1.69313923e-01 5.52767701e-02 8.06196406e-02 4.19329852e-02
      9.79281310e-03 9.77253914e-03 2.03614365e-02 1.31067084e-02
      4.14390087e-01 4.14390087e-01 1.41338572e-01 4.04607244e-02
      1.26369195e-02 1.12033881e-01 9.72694829e-02 2.54178047e-01
      3.54549251e-02 2.60390610e-01 1.38615191e-01 9.70214456e-02
      1.31893195e-02 7.04334602e-02 1.92484990e-01 1.05159171e-01
      1.63265660e-01 4.69415411e-02 2.60390610e-01 1.58438712e-01
      1.95803270e-01 5.81675805e-02 1.07485764e-01 2.24490270e-01
      6.11875281e-02 2.24335045e-01 2.19544433e-02 1.68977261e-01
      2.60390610e-01 2.09195852e-01 8.24066475e-02 2.26662055e-01
      1.53297931e-01 7.49206543e-02 6.47572950e-02 3.00499685e-02
      1.63763896e-01 2.60390610e-01 2.60390610e-01 2.52457410e-01
      1.45609915e-01 2.27203146e-02 2.20162533e-02 1.56616196e-01
      7.40315914e-02 2.09694877e-01 3.05252392e-02 1.91741232e-02
      3.09229810e-02 2.32208204e-02 1.15986854e-01 9.11839530e-02
      3.77923787e-01 4.33181114e-02 3.77923787e-01 6.61425758e-03
      3.09966743e-01 9.67897028e-02 1.16095662e-01 2.21094545e-02
      1.64769087e-02 1.95634678e-01 1.02791302e-01 3.77923787e-01
      1.17747284e-01 6.83467537e-02 3.10304333e-02 1.50453625e-02
      3.59336697e-02 5.90146445e-02 3.18619579e-01 6.40633479e-02
      3.77923787e-01 3.81208248e-02 1.41099498e-01 4.77267317e-02
      3.41676474e-02 2.64281541e-01 2.15707451e-01 2.33030811e-01
      1.02214050e-02 5.62067591e-02 4.56678942e-02 2.47604325e-01
      3.59934308e-02 1.83879972e-01 1.45292714e-01 2.44085148e-01
      3.06183845e-01 1.15981251e-01 7.53239542e-02 2.92824898e-02
      3.63619812e-02 3.82125601e-02 7.67690912e-02 5.85810058e-02
      7.65849203e-02 4.83260453e-02 3.41664739e-02 1.30135268e-01
      1.32938147e-01 3.06183845e-01 1.42737478e-01 4.43121530e-02
      1.70143813e-01 1.98968664e-01 1.77339837e-01 3.06183845e-01
      2.21934527e-01 1.01843394e-01 3.06183845e-01 7.37979785e-02
      7.31632635e-02 1.20641269e-01 4.92695868e-02 3.08847487e-01
      1.40641913e-01 3.08847487e-01 8.32638890e-03 1.00501522e-01
      5.19931838e-02 1.22633897e-01 1.94334984e-01 1.03963166e-01
      3.08847487e-01 2.96130646e-02 3.08847487e-01 0. 8.96949694e-02
      1.56905800e-02 1.94334984e-01 1.30084395e-01 2.89799310e-02
      2.72761375e-01 1.37151808e-01 3.08847487e-01 6.18743128e-04
      6.75761625e-02 3.02170333e-03 1.29286066e-01 1.64465278e-01
      4.02010083e-02 1.77886397e-01 1.10494774e-02 3.08847487e-01 0.
      2.03938678e-01 5.54773547e-02 1.64465278e-01 9.36564803e-02
      7.54479915e-02 2.77724475e-01 7.86961094e-02 1.72883615e-01
      3.83457057e-02 1.25124142e-01 2.94414982e-02 9.36564803e-02
      4.66826968e-02 7.38678947e-02 2.56917477e-01 4.95227985e-02
      1.64759666e-01 1.00533292e-02 3.08551937e-02 7.58404704e-03
      4.67185639e-02 1.36418670e-01 5.90093210e-02 1.99950024e-01
      1.80171821e-02 3.42027396e-01 4.23074886e-02 3.42027396e-01
      1.21959604e-01 1.36418670e-01 2.12093860e-01 2.76624560e-01
      3.42027396e-01 1.94294173e-02 3.42027396e-01 1.24444794e-02
      5.39158396e-02 8.80745705e-03 2.12093860e-01 4.24276292e-02
      1.96346734e-02 6.07312396e-02 3.13409808e-04 1.74585700e-01
      1.46965772e-01 5.77367917e-02 8.49870890e-02 4.40275185e-02
      1.44031923e-02 1.89449843e-02 1.85433794e-02 1.01099685e-02
      3.14031184e-01 3.14031184e-01 5.16476259e-02 1.04121976e-01
      1.60786025e-02 1.63416997e-01 5.68823330e-02 1.70212999e-01 0.
      3.03888053e-01 8.34864751e-02 2.39786118e-01 2.36209586e-01
      1.69700533e-01 2.05854520e-01 1.51835606e-01 1.43232390e-01
      1.50474263e-02 3.14031184e-01 3.14031184e-01 1.56217277e-01
      3.11356872e-01 9.65998098e-02 1.06055010e-02 0. 0. 0.
      3.07177342e-02 0. 0. 0. 1.06055010e-02 1.32781237e-01
      1.67788640e-02 5.08217588e-02 6.53962430e-04 4.19400841e-01
      1.19542563e-02 3.46458927e-02 3.24055888e-02 1.38801113e-01
      8.94121677e-02 7.99414590e-02 1.05660260e-01 3.51378247e-02
      3.22908908e-01 0. 0. 3.84633504e-02 5.71065657e-02 4.19400841e-01
      1.26698539e-01 2.72782326e-01 6.22118749e-02 4.19400841e-01 0.
      2.54777819e-01 1.42837390e-01 3.30686837e-01 1.91587776e-01
      4.98348959e-02 1.07231505e-01 3.98789678e-04 3.12166601e-01
      2.25150529e-02 1.92998648e-01 7.77568147e-02 1.83824793e-01
      2.59243965e-01 1.74164400e-02 5.08267544e-02 0. 3.12166601e-01
      2.03127358e-02 3.12166601e-01 1.09059744e-01 2.63281912e-01
      1.35581210e-01 2.38066763e-02 7.12383837e-02 0. 3.12166601e-01 0.
